{"type":"NeuralNetwork","sizes":[8,64,32,16,1],"layers":[{"weights":[],"biases":[]},{"weights":[[0.16471584141254425,-0.11422551423311234,0.010285365395247936,-0.1763216108083725,0.08975958079099655,0.22717714309692383,-0.02179117500782013,0.19638799130916595],[0.033580366522073746,-0.24611002206802368,0.007077894639223814,0.07698361575603485,-0.042604222893714905,0.20779429376125336,0.14796367287635803,-0.14969809353351593],[0.0091937817633152,-0.2815724313259125,-0.11948011070489883,-0.3609561622142792,-0.06324626505374908,0.18482717871665955,0.03120088391005993,0.05815888196229935],[0.0705370381474495,0.334486186504364,-0.1724139153957367,0.2729857265949249,0.11741988360881805,-0.009163524024188519,0.14973464608192444,0.10440880060195923],[-0.20684310793876648,-0.24292971193790436,0.1268966794013977,-0.014091693796217442,-0.0024808847811073065,0.13493391871452332,-0.014690578915178776,-0.12875212728977203],[0.1264423429965973,0.05168532580137253,0.13859157264232635,-0.28984493017196655,-0.08455188572406769,0.2573954164981842,-0.058945514261722565,-0.029462626203894615],[-0.15858542919158936,-0.08742409199476242,0.011314984411001205,-0.11803518980741501,0.04494780674576759,0.14427529275417328,-0.20818547904491425,0.043183885514736176],[0.16477249562740326,0.10694943368434906,0.1069784089922905,-0.0823114812374115,0.11370284855365753,-0.1711941659450531,0.028200259432196617,-0.0061548929661512375],[0.12677164375782013,-0.06171036511659622,-0.023421550169587135,-0.27625328302383423,-0.1935715526342392,0.22139571607112885,-0.020022839307785034,-0.026270968839526176],[-0.13857273757457733,-0.3433830440044403,0.025657285004854202,-0.31359022855758667,-0.15654973685741425,-0.06803689152002335,0.049897659569978714,0.15169253945350647],[0.01773250661790371,-0.2834892272949219,0.11484330147504807,-0.3654082417488098,-0.06632287055253983,0.2787015438079834,-0.04373819753527641,-0.14046315848827362],[0.04017990082502365,0.3495748043060303,0.01352029386907816,0.32504233717918396,-0.03374214097857475,0.0620986633002758,-0.012139011174440384,0.12834522128105164],[-0.07593317329883575,0.02392689697444439,0.04862801730632782,-0.14871889352798462,-0.1265782117843628,-0.14788465201854706,-0.06623564660549164,0.06551061570644379],[-0.09961746633052826,0.19915644824504852,-0.14766280353069305,0.33459192514419556,0.05085917189717293,-0.07667780667543411,-0.009246010333299637,-0.05124126747250557],[0.08671227097511292,-0.2749388515949249,-0.11554734408855438,-0.19774608314037323,-0.2149910181760788,0.3214622437953949,-0.17983286082744598,0.15873822569847107],[-0.11742991954088211,0.16535018384456635,0.1876630187034607,0.1605132520198822,-0.13022476434707642,0.018228638917207718,0.012553678825497627,0.030317263677716255],[-0.022607816383242607,-0.37965062260627747,-0.19703418016433716,-0.29589661955833435,0.03421687334775925,0.2347588688135147,-0.20050866901874542,0.005507145542651415],[0.19029727578163147,0.21383513510227203,0.06316410005092621,-0.09130514413118362,-0.15441173315048218,-0.049579981714487076,-0.15391488373279572,-0.047285281121730804],[0.0639965683221817,-0.14599785208702087,0.06623096019029617,0.05355246737599373,-0.11561504751443863,0.13821429014205933,0.041902877390384674,-0.09951912611722946],[-0.16560174524784088,-0.45255133509635925,-0.0930173248052597,-0.5023304224014282,-0.010219854302704334,0.2832942306995392,0.0948389396071434,0.055610328912734985],[0.08576666563749313,0.04341278597712517,0.18960963189601898,0.17388056218624115,-0.04180106893181801,0.017028460279107094,0.19505782425403595,0.04242534562945366],[-0.12369409203529358,-0.5200790762901306,0.09640809148550034,-0.20273534953594208,-0.2299661487340927,0.250085711479187,-0.1400272697210312,0.017626674845814705],[0.08360210061073303,-0.5760758519172668,0.06393682956695557,-0.5645766854286194,-0.12273363769054413,0.5177204608917236,0.0007834238931536674,0.11113448441028595],[0.016644971445202827,-0.13892167806625366,0.12437250465154648,-0.00917450338602066,-0.0706392154097557,0.20322078466415405,-0.013428234495222569,-0.02219286933541298],[0.03143385797739029,0.03259371966123581,0.005679103080183268,-0.25423717498779297,-0.21691276133060455,0.036539044231176376,0.02364923618733883,0.09497864544391632],[-0.006393798161298037,-0.06782255321741104,-0.07851414382457733,-0.3887462615966797,-0.08436726778745651,0.3235407769680023,-0.11962206661701202,-0.0010905844392254949],[-0.1034858375787735,0.34779030084609985,0.08893635123968124,0.5015515685081482,-0.13347911834716797,-0.16143351793289185,-0.07983361184597015,0.019455667585134506],[-0.03900087997317314,-0.09383400529623032,-0.0036940777208656073,-0.2254977971315384,0.10199519991874695,0.11249035596847534,-0.16211019456386566,0.08450058847665787],[0.1299562305212021,-0.19174200296401978,0.06722359359264374,0.11297954618930817,-0.15195763111114502,-0.1035541221499443,-0.056983672082424164,0.15053057670593262],[-0.09331831336021423,-0.08497004956007004,-0.18205833435058594,-0.18583513796329498,0.08267264068126678,0.20451053977012634,-0.09794943034648895,-0.13208220899105072],[-0.1241803988814354,0.06756672263145447,-0.07715307921171188,-0.15435892343521118,-0.17391537129878998,-0.04687457159161568,0.13437438011169434,-0.1494327336549759],[0.14246554672718048,-0.3204742670059204,-0.11841537803411484,-0.20099928975105286,-0.1914544552564621,0.04047238826751709,0.14459605515003204,0.09133966267108917],[-0.034039177000522614,0.4974558651447296,-0.022505557164549828,0.6033885478973389,-0.04396572336554527,-0.165947824716568,-0.057191550731658936,0.10684552043676376],[-0.05642571672797203,-0.15890277922153473,-0.1944987177848816,-0.41704750061035156,0.043994829058647156,0.1531023532152176,-0.017790203914046288,0.049699194729328156],[0.17824138700962067,-0.0746421217918396,-0.13948437571525574,-0.07884514331817627,0.07271144539117813,0.0071988217532634735,-0.16727083921432495,0.1736452430486679],[-0.22506877779960632,-0.26475051045417786,-0.14053763449192047,-0.16141285002231598,0.02656884677708149,0.060227446258068085,-0.14365847408771515,0.05258306488394737],[-0.1733657419681549,-0.2682766318321228,0.08908272534608841,-0.16399194300174713,-0.047429826110601425,0.2811661958694458,0.14381854236125946,-0.129985973238945],[0.00869152881205082,-0.16471555829048157,-0.06881655007600784,-0.16810093820095062,-0.18464666604995728,0.049115583300590515,-0.12245713174343109,-0.11149989068508148],[-0.036085259169340134,0.45717933773994446,0.0363914854824543,0.499750018119812,0.12061628699302673,-0.1381421983242035,0.2132958173751831,-0.09276699274778366],[-0.17536930739879608,-0.07339435070753098,-0.1722312867641449,-0.3363422155380249,-0.024586204439401627,0.11233833432197571,0.08001266419887543,-0.056205663830041885],[-0.008438213728368282,-0.4403257966041565,0.018972156569361687,-0.38921496272087097,-0.08423816412687302,0.18245552480220795,-0.12093597650527954,0.22390620410442352],[0.14348062872886658,-0.261860191822052,0.07778126001358032,0.03940453752875328,0.13606463372707367,0.07104223221540451,0.03352823108434677,0.1000601053237915],[0.14151941239833832,0.1834767907857895,-0.03629530966281891,-0.020402437075972557,-0.019874900579452515,-0.18644313514232635,-0.0866771787405014,-0.06975339353084564],[-0.12304680794477463,-0.017061010003089905,-0.001695375656709075,0.14509087800979614,-0.15010382235050201,0.014042332768440247,0.2141394466161728,-0.1421070694923401],[-0.12364455312490463,-0.0059915767051279545,-0.11906087398529053,0.08554240316152573,0.19955722987651825,-0.018963463604450226,0.16131442785263062,0.1116902083158493],[-0.1438359171152115,0.3973425328731537,0.0012499716831371188,0.19973371922969818,0.11888019740581512,-0.22784507274627686,0.021870315074920654,0.15763463079929352],[0.14403781294822693,0.30776798725128174,0.1433984488248825,0.10816418379545212,-0.024269703775644302,-0.27119117975234985,0.01724608801305294,-0.15901467204093933],[0.20472264289855957,0.1872531920671463,0.1990969330072403,0.08139822632074356,0.17869162559509277,0.026638096198439598,0.08637239784002304,-0.007711037062108517],[0.15960775315761566,0.596542477607727,0.08143145591020584,0.5313470363616943,-0.02656071074306965,-0.23310735821723938,-0.14340315759181976,-0.23536717891693115],[0.11743411421775818,-0.25395411252975464,0.12486272305250168,-0.3193013668060303,-0.15709781646728516,0.14111864566802979,0.02833601087331772,0.035634636878967285],[-0.07140333205461502,0.240873783826828,0.13394245505332947,0.24067580699920654,0.04239779710769653,-0.17542578279972076,-0.03765755891799927,0.008960696868598461],[-0.133649542927742,-0.23106560111045837,0.10548284649848938,0.0106454873457551,0.01503387838602066,-0.16487301886081696,-0.051681920886039734,-0.028830258175730705],[0.030183076858520508,-0.14493530988693237,-0.08159348368644714,-0.22793185710906982,-0.06211819127202034,-0.021093277260661125,0.08634374290704727,0.0002943725557997823],[-0.11757726967334747,0.10776087641716003,0.020135127007961273,-0.2559947669506073,-0.01571907289326191,-0.0901212990283966,-0.064954474568367,-0.19178494811058044],[-0.17466463148593903,-0.28521841764450073,-0.0600554496049881,-0.3402184247970581,0.1378864347934723,0.10438687354326248,0.09876853972673416,0.0003219947684556246],[-0.038271352648735046,-0.06804079562425613,0.12606953084468842,-0.278172105550766,-0.027371807023882866,0.23441901803016663,0.12623271346092224,-0.11863020807504654],[-0.11444694548845291,0.05713577941060066,-0.09490933269262314,0.14687134325504303,0.057763390243053436,-0.10593893378973007,-0.1906772255897522,-0.1660485863685608],[0.0934041291475296,-0.17906945943832397,0.02703515999019146,-0.4651787281036377,-0.2069607973098755,0.24736540019512177,0.09308140724897385,-0.14478799700737],[0.06732993572950363,-0.0013234406942501664,0.08513734489679337,-0.03842736408114433,-0.05164363607764244,-0.08525765687227249,-0.15084755420684814,-0.09180249273777008],[-0.10275283455848694,0.3991917669773102,-0.003512423951178789,0.5662994384765625,-0.07878047972917557,-0.12451490014791489,0.2313985973596573,0.03929506242275238],[-0.12269968539476395,-0.05542769283056259,-0.11742006242275238,0.18675267696380615,0.02966405265033245,-0.07763825356960297,0.13859757781028748,-0.09859346598386765],[0.026460228487849236,0.17945969104766846,0.2166309505701065,0.304596483707428,-0.01907150074839592,-0.12660600244998932,0.04114988446235657,-0.1099526658654213],[-0.05159367620944977,0.259281724691391,0.18038734793663025,0.45138832926750183,0.11571267247200012,-0.32047146558761597,0.07624626159667969,-0.014093087054789066],[0.20188792049884796,0.08856060355901718,0.1744646281003952,0.35767221450805664,0.21870815753936768,-0.29572901129722595,-0.04117259010672569,-0.08080131560564041]],"biases":[0.19539301097393036,-0.08226752281188965,-0.07481051236391068,-0.19707779586315155,0.06661442667245865,0.1478402018547058,0.1874467134475708,0.11986573040485382,-0.050465479493141174,0.00280634849332273,0.04227288067340851,0.06143258512020111,-0.175576314330101,0.02188209630548954,0.01829388737678528,0.15091127157211304,0.02006532996892929,0.04125303775072098,0.10489699244499207,-0.05155797302722931,-0.17026077210903168,0.07659883797168732,-0.040011659264564514,-0.08934170007705688,0.17064818739891052,-0.05870140716433525,-0.07761859893798828,0.02413177117705345,-0.040917184203863144,0.09203541278839111,-0.07761562615633011,-0.17634108662605286,-0.015429411083459854,0.14527595043182373,0.11266165971755981,-0.08004797995090485,-0.17427188158035278,-0.08556422591209412,-0.05472973361611366,0.1707412600517273,-0.13425718247890472,0.15440517663955688,-0.07354353368282318,-0.0091776754707098,-0.05612407997250557,0.02507117949426174,0.15848851203918457,-0.11184319108724594,-0.018411213532090187,-0.1845398247241974,-0.053815267980098724,0.001023497898131609,0.07632258534431458,-0.012980706058442593,0.03013436309993267,-0.005657396279275417,-0.1994050145149231,-0.09983685612678528,-0.12937526404857635,-0.2285316437482834,-0.001645575393922627,0.11535802483558655,-0.16006240248680115,-0.026951061561703682]},{"weights":[[-0.11303965747356415,0.014589378610253334,0.16808493435382843,-0.17267540097236633,-0.04411841183900833,-0.006073466967791319,0.0148064149543643,0.15597012639045715,-0.09059151262044907,-0.1291443407535553,-0.16729100048542023,-0.03011328913271427,-0.028205648064613342,0.005399163346737623,-0.1007511168718338,-0.08454643934965134,-0.2031852900981903,0.04474426433444023,-0.13006600737571716,0.13373447954654694,-0.09498544037342072,0.10546769946813583,-0.05232706665992737,0.02686547115445137,0.11641846597194672,0.04033295065164566,0.025534410029649734,-0.08543336391448975,-0.15059888362884521,0.12217521667480469,-0.15890884399414062,-0.09350401163101196,0.21700257062911987,-0.001462097279727459,0.023126039654016495,0.14192622900009155,0.13799366354942322,0.11294136941432953,0.0992388054728508,-0.1925320029258728,-0.1048605814576149,-0.05745400860905647,-0.07980570197105408,0.11003725230693817,0.12053971737623215,0.07164239883422852,0.10529550164937973,-0.14486916363239288,-0.05532031133770943,-0.15492600202560425,0.14593176543712616,0.028650986030697823,-0.12902167439460754,-0.02955990843474865,-0.03932754322886467,-0.1463691145181656,0.1290884017944336,0.002391216577962041,-0.12757104635238647,0.04949016124010086,-0.11472070217132568,0.1772482842206955,-0.16934506595134735,0.02992177940905094],[0.15537326037883759,-0.04749348387122154,0.20440514385700226,-0.022351479157805443,-0.043853435665369034,0.15352767705917358,0.013762319460511208,0.07720684260129929,0.24889357388019562,-0.014444945380091667,0.23519931733608246,-0.26169657707214355,0.07679402828216553,0.07471580803394318,0.22117692232131958,0.09034550189971924,-0.06494993716478348,-0.04626111686229706,-0.15713083744049072,0.23546485602855682,0.09345810115337372,0.2923060655593872,0.25712263584136963,0.07261502742767334,0.18421074748039246,0.11479773372411728,-0.28292226791381836,0.07551855593919754,0.11341097205877304,-0.05985301733016968,0.14250443875789642,-0.09440038353204727,-0.20592302083969116,0.05337809771299362,0.16985656321048737,-0.07015256583690643,0.10226254165172577,0.15025988221168518,-0.14618653059005737,0.10182144492864609,0.153469517827034,-0.11749456077814102,0.0983448475599289,-0.10157398879528046,0.1550370752811432,-0.2114911824464798,-0.27628135681152344,0.11720046401023865,-0.3164924681186676,-0.020681677386164665,0.05819230154156685,0.0057385582476854324,0.08988337218761444,0.09909945726394653,0.08550229668617249,-0.009467982687056065,0.012297743931412697,0.2776770293712616,0.14097896218299866,-0.14086012542247772,0.17820638418197632,-0.1585245132446289,-0.3064103424549103,-0.2525689899921417],[-0.012360458262264729,0.14289502799510956,-0.08443889021873474,-0.06956976652145386,0.15936018526554108,0.2389516532421112,0.2307111918926239,0.021699007600545883,0.07385150343179703,0.2128622680902481,0.19532592594623566,-0.006638528313487768,-0.07151729613542557,-0.1351582556962967,0.2196899801492691,-0.06161261722445488,0.21972408890724182,0.1027071550488472,0.013165093027055264,0.11618081480264664,-0.21399131417274475,0.2265194058418274,0.23732180893421173,-0.06803292781114578,-0.04511644318699837,0.12198074907064438,-0.16888661682605743,0.22831621766090393,0.09910426288843155,-0.03060946613550186,-0.04492073133587837,-0.01495536882430315,-0.009488740004599094,0.21822962164878845,-0.1425773948431015,-0.13450506329536438,0.08866742998361588,0.2215723842382431,-0.15105578303337097,0.09173592925071716,0.030689790844917297,0.03551756590604782,-0.05659579113125801,0.06369324773550034,-0.0312038566917181,-0.22745315730571747,-0.07756206393241882,-0.18567916750907898,-0.05340670421719551,0.016150152310729027,-0.08410626649856567,-0.07679930329322815,-0.147181436419487,0.08500133454799652,-0.026991816237568855,0.14008870720863342,-0.05859564244747162,0.18390785157680511,-0.14535827934741974,-0.29622283577919006,0.13844171166419983,-0.08168583363294601,0.019152062013745308,-0.18662132322788239],[0.13410621881484985,-0.013862736523151398,-0.0778629407286644,0.017035750672221184,0.11837241053581238,0.0444280244410038,0.023784855380654335,-0.15339228510856628,-0.05610565468668938,-0.08373861759901047,0.2212337702512741,-0.025026097893714905,0.11135275661945343,0.13260066509246826,0.14632627367973328,-0.10013092309236526,-0.041365209966897964,-0.021801145747303963,0.04093123599886894,-0.03342590853571892,-0.16828417778015137,0.07515766471624374,0.15365161001682281,-0.07388294488191605,0.015299453400075436,0.17993029952049255,-0.12245948612689972,-0.15165887773036957,-0.0822334960103035,-0.019394410774111748,-0.10847265273332596,-0.05489054694771767,-0.13393065333366394,0.003103252500295639,-0.020402928814291954,-0.04023749753832817,0.23333650827407837,-0.04454025998711586,-0.18855008482933044,-0.04051806405186653,-0.019200144335627556,0.140464648604393,0.15910112857818604,0.11263114959001541,0.07185325771570206,-0.12141407281160355,0.08655045926570892,0.10081823915243149,-0.09183020144701004,0.19169645011425018,-0.04254211112856865,0.12799584865570068,0.1942131668329239,-0.07612787932157516,-0.11066038906574249,0.0905553549528122,0.11769571900367737,-0.08634836971759796,0.14360688626766205,-0.2633192837238312,0.16035772860050201,-0.11153218150138855,0.11202068626880646,-0.10001703351736069],[0.14074164628982544,0.07039889693260193,-0.14997850358486176,0.18476493656635284,-0.05811900272965431,-0.2137821912765503,-0.09696626663208008,0.161103755235672,-0.03516463562846184,-0.14715050160884857,0.04090059921145439,0.03089216537773609,-0.06913098692893982,-0.00025829568039625883,-0.08571550995111465,0.17324158549308777,-0.13015751540660858,-0.1578134000301361,-0.19177639484405518,-0.10540857911109924,0.04461314156651497,0.06692095845937729,-0.26809999346733093,-0.13656041026115417,0.15528735518455505,0.07297109067440033,0.19994279742240906,-0.03316965326666832,-0.015543879009783268,-0.14870676398277283,-0.1539197415113449,0.009668559767305851,-0.08461463451385498,-0.19792619347572327,0.15250054001808167,-0.0981503501534462,-0.18603527545928955,0.16409023106098175,0.1002386286854744,0.14521315693855286,0.0685235932469368,-0.08926695585250854,0.11860446631908417,0.10761015862226486,-0.13527952134609222,0.16852650046348572,-0.014297734014689922,-0.14383511245250702,0.06973448395729065,0.09867192059755325,-0.017708884552121162,0.13609321415424347,0.05624958500266075,-0.10821843147277832,0.13294066488742828,0.11077691614627838,-0.045178260654211044,0.04475489258766174,-0.07709786295890808,0.12057391554117203,-0.18701881170272827,0.17966586351394653,0.06307882815599442,0.20574873685836792],[-0.08814001828432083,0.09991420060396194,-0.17578230798244476,0.11966301500797272,-0.16014905273914337,-0.18548880517482758,0.041750870645046234,-0.030488768592476845,0.09754959493875504,0.009082348085939884,0.1356339305639267,-0.01066572219133377,-0.12276919186115265,0.14411453902721405,-0.09629925340414047,0.12594009935855865,-0.0737258642911911,0.008608353324234486,0.12130123376846313,-0.027195541188120842,-0.17155396938323975,0.1172298714518547,0.1129910796880722,0.16555458307266235,-0.16967429220676422,0.017977477982640266,0.03191562369465828,-0.040724918246269226,-0.047119639813899994,0.06179619953036308,0.1815384179353714,-0.028560135513544083,-0.07720653712749481,-0.09404926002025604,0.011423123069107533,0.08148705214262009,-0.08686567842960358,-0.09066010266542435,-0.1226077675819397,0.09254660457372665,-0.09582684189081192,-0.1772668957710266,0.013297962956130505,-0.05350922420620918,-0.028462616726756096,-0.20737764239311218,-0.16460846364498138,-0.18504755198955536,0.15835672616958618,-0.18102067708969116,-0.1978098452091217,0.022568222135305405,-0.1661498248577118,0.0604717992246151,0.04748480021953583,-0.08753793686628342,0.09480102360248566,0.029122252017259598,0.056517425924539566,-0.14972861111164093,0.18934185802936554,0.12791453301906586,-0.08488154411315918,0.08844217658042908],[-0.13864485919475555,0.12089017033576965,-0.03626693785190582,0.018706994131207466,0.048741664737463,0.053330421447753906,0.02999911457300186,0.160737544298172,0.06714511662721634,-0.03965112194418907,-0.09969859570264816,0.21747760474681854,-0.1967199742794037,0.12540414929389954,0.07067755609750748,-0.09950196743011475,-0.16782675683498383,0.08710692077875137,0.013946013525128365,-0.046220406889915466,0.07131128013134003,-0.02126665599644184,-0.2149910181760788,-0.1582793891429901,-0.17602579295635223,-0.04300631582736969,-0.030448531731963158,0.10347835719585419,0.024886995553970337,-0.22472423315048218,-0.026055611670017242,-0.1747906357049942,0.10084851086139679,-0.09070993959903717,0.09248284995555878,-0.056615423411130905,0.0009924008045345545,-0.07968875765800476,0.27441883087158203,-0.0675399899482727,-0.08695271611213684,-0.1926092505455017,0.05134239047765732,0.09105343371629715,0.05171237513422966,-0.0953911542892456,0.10849402844905853,0.10640975087881088,0.03932960703969002,0.07851763814687729,0.0814882144331932,0.12043790519237518,-0.17134663462638855,-0.09897959232330322,0.0050126416608691216,-0.08386228233575821,0.053376488387584686,-0.13488677144050598,-0.057931821793317795,0.13875874876976013,-0.08527746796607971,-0.010143261402845383,-0.07422102987766266,0.22216951847076416],[0.13215449452400208,0.05189301818609238,0.16765999794006348,-0.10140331089496613,0.05330607667565346,-0.1134677305817604,0.0983438640832901,-0.1924990564584732,-0.06998218595981598,0.12692393362522125,0.03948109969496727,0.1226550042629242,-0.0280405692756176,0.1982608288526535,-0.1048312783241272,0.1894630491733551,0.12906424701213837,0.11116834729909897,-0.1992781162261963,-0.07380099594593048,-0.11860594898462296,0.08365917950868607,-0.08638011664152145,0.11319328844547272,0.012072710320353508,0.13624688982963562,0.07549519091844559,-0.15692199766635895,0.14779143035411835,-0.07799497991800308,-0.051321741193532944,-0.04775023087859154,-0.0873761996626854,0.0032258140854537487,-0.0007608276791870594,0.011145583353936672,0.16088716685771942,0.024851491674780846,0.14772862195968628,0.06516680121421814,-0.20758870244026184,0.12652456760406494,-0.17142294347286224,-0.030520528554916382,0.00821466650813818,0.17627036571502686,-0.007273778319358826,-0.02316652052104473,0.1358983963727951,-0.14776596426963806,-0.1710457056760788,-0.12971916794776917,-0.05898505076766014,-0.18253517150878906,-0.02841975726187229,-0.20632684230804443,-0.09337638318538666,-0.0810527577996254,-0.19313134253025055,-0.0687967911362648,-0.043178677558898926,-0.045722596347332,-0.09197021275758743,-0.18019996583461761],[0.10630819201469421,-0.05675205588340759,-0.14562839269638062,0.18719951808452606,-0.06622707098722458,0.14520646631717682,-0.09289540350437164,0.08395306020975113,-0.05780218914151192,-0.16114498674869537,-0.18127743899822235,0.025533679872751236,0.15822477638721466,0.03207975998520851,-0.2552204132080078,0.08189436793327332,0.004253412131220102,0.2210211604833603,-0.05475498363375664,-0.265655517578125,0.11363537609577179,-0.15030443668365479,-0.21683929860591888,-0.03203384578227997,-0.03690456226468086,-0.2444436103105545,0.15450792014598846,0.15724137425422668,-0.14023400843143463,-0.17622070014476776,-0.01209985464811325,-0.03139976039528847,0.24692244827747345,-0.058456599712371826,0.08919981122016907,-0.011123305186629295,0.14779235422611237,-0.12347359210252762,-0.047620199620723724,-0.007684401236474514,-0.18037913739681244,-0.06895525753498077,-0.09204013645648956,-0.019104687497019768,-0.08391278982162476,-0.1246919184923172,-0.07172377407550812,-0.057456884533166885,0.02469736337661743,-0.17543981969356537,0.14949460327625275,-0.19031360745429993,0.05663484334945679,-0.1324099898338318,-0.21401074528694153,0.06519979983568192,-0.1180499792098999,-0.0821179673075676,-0.08324567973613739,0.1089891716837883,-0.06747788190841675,0.16253718733787537,0.2909838855266571,0.15745484828948975],[-0.19469799101352692,-0.21265237033367157,-0.14980807900428772,0.2216455191373825,-0.02714725024998188,-0.027392450720071793,-0.17052839696407318,0.1443839818239212,-0.12783022224903107,-0.06153691187500954,0.02614171989262104,0.013588710688054562,0.05996431037783623,0.026865152642130852,-0.16263699531555176,-0.15356270968914032,0.11740468442440033,0.06419115513563156,0.040485333651304245,-0.08204784989356995,0.09411116689443588,-0.24595850706100464,-0.17872893810272217,0.07770907878875732,-0.21196900308132172,-0.07726825028657913,0.034065451472997665,0.009695274755358696,0.13403087854385376,-0.15496596693992615,0.02780372090637684,-0.04840456694364548,0.12085264176130295,-0.006275861524045467,0.06370372325181961,-0.13439218699932098,0.12201910465955734,-0.02536330185830593,-0.015729984268546104,-0.033229291439056396,0.08931805938482285,0.08342631161212921,-0.1455044448375702,0.13997511565685272,0.12853248417377472,0.04304926469922066,-0.1140565425157547,0.08560572564601898,0.27520114183425903,0.0716288760304451,0.032809942960739136,0.09041640162467957,-0.050271399319171906,0.01504125539213419,-0.1235620453953743,-0.04357901215553284,0.1948745846748352,-0.022356586530804634,0.1469380110502243,0.17472316324710846,-0.12159796059131622,0.06083951145410538,0.1950663924217224,-0.13701406121253967],[-0.05924529209733009,0.02273687906563282,-0.14536944031715393,-0.14107508957386017,0.1956191509962082,0.025601305067539215,-0.01837584190070629,-0.09221042692661285,0.001418914645910263,0.1809735745191574,0.05986481532454491,-0.19951216876506805,-0.16190281510353088,0.02079293504357338,-0.1315688043832779,0.03514666482806206,0.06687325239181519,-0.1645904928445816,0.1048361286520958,0.09965522587299347,-0.14223377406597137,0.13363085687160492,-0.15946796536445618,0.09138575941324234,0.1930266171693802,-0.09210775047540665,-0.132097989320755,0.19922997057437897,0.009816347621381283,0.0937144085764885,0.08931794762611389,-0.08607938885688782,0.14437653124332428,0.16829036176204681,0.05893794074654579,-0.031691811978816986,0.16016033291816711,-0.19043073058128357,-0.0700855404138565,0.09292039275169373,-0.13889984786510468,-0.16306369006633759,0.10911688953638077,-0.0377473421394825,0.04708898067474365,-0.1980467438697815,0.02533910609781742,-0.17850732803344727,-0.16260090470314026,-0.1744212806224823,-0.1662798374891281,-0.09173693507909775,0.11368199437856674,0.16678056120872498,-0.19327189028263092,-0.0450483076274395,-0.11613128334283829,0.187618687748909,0.017583537846803665,-0.14397555589675903,-0.13302314281463623,0.04468837380409241,-0.049378201365470886,0.024204013869166374],[0.22579684853553772,-0.012798438780009747,0.07127900421619415,0.07209216803312302,0.02567070536315441,-0.09568606317043304,0.009079966694116592,-0.1528669148683548,0.23443597555160522,0.04218927025794983,0.08430777490139008,0.06652276962995529,0.11680133640766144,-0.12901414930820465,0.10462700575590134,-0.1966220885515213,0.309638649225235,0.13719038665294647,-0.006151098292320967,0.0262477844953537,0.06357955932617188,0.2846938669681549,0.2676441967487335,0.19110049307346344,0.23032145202159882,0.12375000864267349,-0.12039924412965775,0.02356329746544361,0.013963992707431316,0.25671109557151794,0.10405192524194717,-0.05104144662618637,-0.18864962458610535,0.2755642235279083,0.15616196393966675,0.18800713121891022,0.17767399549484253,-0.06606359034776688,-0.26920485496520996,0.04522603005170822,0.24171338975429535,0.11329476535320282,-0.06955019384622574,0.04787524417042732,-0.16025246679782867,-0.28053802251815796,-0.15415166318416595,-0.2098575234413147,-0.2673972547054291,0.033230334520339966,-0.2214619666337967,0.14201463758945465,0.009382428601384163,0.22010616958141327,0.08375879377126694,0.12658323347568512,0.10203801095485687,0.16521650552749634,-0.15075288712978363,-0.2664662301540375,-0.1525067239999771,-0.037949271500110626,-0.025594713166356087,-0.08305855840444565],[-0.18817690014839172,-0.18224523961544037,-0.20637136697769165,-0.11115909367799759,0.05451444536447525,-0.12994250655174255,0.14262184500694275,0.018680663779377937,0.10234570503234863,-0.1612386852502823,0.12565810978412628,-0.026748400181531906,-0.0880625769495964,-0.07945653796195984,0.18882788717746735,-0.07838090509176254,0.1353972852230072,-0.061611540615558624,0.12850654125213623,0.14567075669765472,-0.1806967705488205,-0.08842922747135162,-0.12091299891471863,-0.06337771564722061,0.18186576664447784,-0.1850513517856598,-0.03388745337724686,0.07470064610242844,0.04723145812749863,-0.04886804148554802,0.10767633467912674,-0.15130512416362762,0.1920849084854126,-0.13500848412513733,-0.032065168023109436,0.1650424748659134,-0.027702076360583305,0.16833047568798065,-0.013663225807249546,-0.09025336056947708,-0.21305322647094727,0.19803598523139954,0.05095764994621277,0.013462028466165066,0.0371866375207901,-0.058314256370067596,-0.043009113520383835,0.1310839056968689,0.032193586230278015,0.03530318662524223,-0.057916685938835144,0.029709676280617714,-0.1679242104291916,-0.1508226841688156,0.1815177947282791,0.11162309348583221,0.005786316469311714,0.05832938849925995,-0.05280841514468193,0.205582395195961,0.11117950826883316,-0.11878441274166107,0.15359549224376678,0.18965788185596466],[0.14307543635368347,-0.07810463011264801,-0.11282448470592499,-0.16136403381824493,-0.010072973556816578,0.1951930820941925,-0.1567922979593277,-0.142560675740242,-0.0696101039648056,-0.08739478141069412,-0.044139325618743896,-0.12347717583179474,-0.15921300649642944,-0.12119808048009872,0.06492702662944794,-0.1657908707857132,0.11102905869483948,-0.047409191727638245,-0.10201466828584671,0.1382303088903427,0.10564085096120834,-0.0753188282251358,0.19293229281902313,0.007242937106639147,0.009688799269497395,-0.02622690610587597,0.1358613520860672,0.1976565569639206,0.20229724049568176,0.17993727326393127,0.12872342765331268,0.20317955315113068,-0.1376153975725174,0.18660391867160797,-0.12787696719169617,0.20546913146972656,0.11802324652671814,0.06870734691619873,-0.006245169788599014,-0.054385680705308914,-0.09014976769685745,-0.006691064685583115,-0.023048898205161095,-0.04242014139890671,0.17151127755641937,0.0307826716452837,-0.040635768324136734,-0.17417357861995697,-0.10819650441408157,0.17212553322315216,-0.07180512696504593,-0.03449529781937599,0.14419054985046387,0.007085415069013834,-0.06294848024845123,0.05231260135769844,0.09175775200128555,0.07607293874025345,-0.06347472965717316,0.10215496271848679,-0.10893512517213821,0.07976724207401276,-0.16159263253211975,0.028784407302737236],[-0.048089973628520966,-0.18251919746398926,-0.1675635129213333,0.11741826683282852,-0.11459701508283615,-0.21622884273529053,-0.2456168234348297,-0.10398334264755249,-0.1297646164894104,-0.09992911666631699,-0.15927159786224365,-0.08182977885007858,-0.1445794254541397,0.22912274301052094,0.05767722427845001,0.19959987699985504,-0.005366479512304068,-0.020926078781485558,0.028708262369036674,-0.37320461869239807,-0.07951705157756805,-0.3212035000324249,-0.28507199883461,0.10676071792840958,-0.08944753557443619,0.057632867246866226,0.2948148548603058,-0.14897678792476654,0.03154399245977402,-0.1442181020975113,0.07175318896770477,-0.1492861658334732,0.18659862875938416,-0.1800287514925003,0.009626077488064766,-0.2595037519931793,0.0006780546391382813,-0.04560834541916847,0.2793692946434021,0.017345495522022247,-0.16440816223621368,-0.12260536104440689,0.24418386816978455,-0.0740242674946785,-0.1454971730709076,-0.025552816689014435,0.2713898718357086,0.055712152272462845,0.393424928188324,-0.2352074682712555,0.10199420899152756,-0.22018401324748993,-0.1845885068178177,0.0845598578453064,-0.12868589162826538,-0.09541056305170059,-0.01914585568010807,-0.12479126453399658,-0.024717245250940323,0.33524590730667114,0.14363230764865875,0.2989242374897003,0.351651132106781,0.051893774420022964],[-0.053737182170152664,0.03781744837760925,-0.11610221862792969,-0.02824367769062519,0.1749769002199173,0.14056183397769928,0.18050643801689148,0.17865777015686035,0.014896263368427753,-0.06794822961091995,0.15482190251350403,0.12167419493198395,-0.123031847178936,-0.21466566622257233,0.20332351326942444,-0.16939806938171387,0.1530206799507141,-0.05851869657635689,-0.05434789881110191,0.06102066487073898,-0.10841067135334015,0.040501825511455536,0.16557972133159637,0.028089839965105057,0.11897048354148865,-0.0502585805952549,0.1362677812576294,0.17146456241607666,-0.13072800636291504,-0.037726785987615585,-0.10533896088600159,0.022463032975792885,0.14249064028263092,0.06693856418132782,0.031721100211143494,0.16315969824790955,-0.029600610956549644,-0.15579193830490112,-0.199066162109375,0.14372986555099487,0.2120794951915741,0.18850108981132507,-0.16291023790836334,-0.07452697306871414,0.1417703628540039,-0.1877296268939972,0.03497440367937088,0.18547801673412323,-0.1777198314666748,0.04942736402153969,0.09355051070451736,-0.14154452085494995,-0.031840112060308456,-0.17573246359825134,0.10355684161186218,0.11317141354084015,0.07545283436775208,-0.0016056143213063478,-0.08543659001588821,0.06111323833465576,-0.16929548978805542,0.10856937617063522,0.04125338792800903,0.02891094982624054],[0.11569426208734512,-0.1900760680437088,0.09124341607093811,0.06459591537714005,0.0607185885310173,-0.14732398092746735,0.0009795940713956952,-0.08751793205738068,-0.18758119642734528,0.005973936058580875,0.15562665462493896,-0.039003148674964905,-0.07273508608341217,0.012462500482797623,-0.06674735248088837,0.05102083832025528,0.02212264947593212,-0.024859797209501266,-0.06044786423444748,-0.1373964250087738,-0.18023228645324707,-0.02816515788435936,0.1246761903166771,-0.03217499330639839,-0.11848664283752441,-0.00004189959145151079,0.15197236835956573,-0.1750408262014389,0.023055849596858025,-0.18396267294883728,-0.10983237624168396,-0.10770132392644882,0.12042418122291565,-0.06538655608892441,-0.030120937153697014,-0.04480624571442604,-0.06318695098161697,-0.02600742317736149,-0.18667416274547577,-0.12104754894971848,0.1555945724248886,-0.14451295137405396,-0.1671501100063324,0.10326224565505981,0.15881052613258362,0.027987873181700706,-0.15734513103961945,0.19941067695617676,0.07174821197986603,-0.036691755056381226,0.16607370972633362,-0.13476881384849548,0.008795901201665401,0.07945695519447327,-0.16665135324001312,0.14114747941493988,0.1298544853925705,0.0020863618701696396,-0.11641159653663635,0.110796719789505,0.17141880095005035,-0.07930091768503189,0.037237659096717834,0.15938234329223633],[-0.07840045541524887,0.1433144211769104,0.03271511197090149,-0.04460062459111214,0.15693534910678864,-0.11219657957553864,-0.09299468249082565,0.006534732412546873,0.24683581292629242,0.2625931203365326,0.1285015344619751,-0.15213358402252197,0.2030535340309143,0.08213254809379578,0.15922769904136658,-0.11815153807401657,0.20674237608909607,-0.10424993187189102,0.23153769969940186,0.13200661540031433,-0.13697661459445953,0.12692348659038544,0.15650144219398499,-0.03779377043247223,0.16992992162704468,0.2801683843135834,-0.1751084327697754,-0.01954015903174877,-0.10328295081853867,0.033525969833135605,-0.02654113620519638,0.10191282629966736,-0.10550650209188461,0.2458028644323349,0.10597310215234756,0.21960966289043427,-0.09313856810331345,0.05061067268252373,-0.19516399502754211,0.03003927879035473,0.308115690946579,-0.12777471542358398,-0.15722087025642395,-0.09623260051012039,-0.08901666104793549,-0.13671739399433136,0.0917760357260704,-0.0678493082523346,-0.1657048463821411,0.19236783683300018,-0.17667852342128754,-0.13531142473220825,0.20925386250019073,0.05865082889795303,0.14183473587036133,0.24376733601093292,-0.15965212881565094,-0.024037426337599754,-0.12358756363391876,-0.23346799612045288,-0.04737623780965805,-0.08300995081663132,-0.004691055975854397,-0.19765432178974152],[0.11579830944538116,-0.13026167452335358,-0.060771968215703964,0.1761668622493744,-0.09909029304981232,-0.23580797016620636,-0.10788481682538986,-0.13353776931762695,0.08763502538204193,-0.21614082157611847,0.07792703807353973,-0.06902526319026947,-0.029017340391874313,-0.016275679692626,0.046989087015390396,-0.007082800380885601,-0.2694336473941803,0.01821957156062126,0.11590253561735153,-0.16888324916362762,0.14938214421272278,-0.18993014097213745,-0.1289161741733551,-0.18968285620212555,-0.04693849757313728,-0.038664307445287704,0.20800821483135223,-0.14217589795589447,-0.11612869054079056,-0.017825376242399216,0.16395145654678345,-0.1631290465593338,0.021944314241409302,-0.18018585443496704,0.08227453380823135,-0.1142561212182045,-0.2093161791563034,0.056190043687820435,0.09962859749794006,-0.25932231545448303,-0.1813327670097351,-0.09436391294002533,0.07722699642181396,-0.16546012461185455,-0.011969692073762417,0.05489816144108772,0.10268939286470413,0.08269255608320236,0.25016334652900696,0.006412080489099026,0.15505242347717285,0.1062411516904831,0.008112438954412937,0.03613538295030594,0.021077781915664673,0.05532553419470787,-0.05921465903520584,0.07938545197248459,0.12225273996591568,0.24560098350048065,0.0659862607717514,0.13857011497020721,0.1655418574810028,0.07558387517929077],[-0.0852094292640686,-0.025156671181321144,-0.2918141484260559,0.17910009622573853,-0.04912068322300911,-0.15580494701862335,-0.06466148048639297,-0.01645282469689846,0.09725533425807953,-0.1892136186361313,-0.23536738753318787,0.17575286328792572,-0.020647084340453148,0.07313953340053558,0.024778209626674652,0.07988888770341873,-0.2810627520084381,0.062300894409418106,-0.1033899262547493,-0.37518802285194397,-0.038654401898384094,-0.10317375510931015,-0.4587428569793701,-0.23143325746059418,0.07894043624401093,-0.3162862956523895,0.23080918192863464,-0.10471887141466141,0.1339888572692871,0.017899222671985626,-0.17068935930728912,-0.07610226422548294,0.32381415367126465,-0.14641934633255005,-0.051082950085401535,-0.18511976301670074,-0.3110128343105316,-0.019973207265138626,0.23946425318717957,-0.13869139552116394,-0.05195147171616554,-0.190945103764534,0.04496800899505615,0.14475038647651672,0.08988650888204575,0.26400795578956604,0.004079868085682392,0.2030332088470459,0.3152061998844147,-0.026825997978448868,-0.10684662312269211,-0.14387868344783783,-0.017249610275030136,-0.08646676689386368,-0.28501784801483154,-0.05335738882422447,-0.07775796204805374,-0.25015953183174133,0.018592437729239464,0.3094155788421631,0.11845488101243973,0.10379832983016968,0.12725171446800232,0.08552297949790955],[-0.01794362999498844,-0.08211279660463333,0.008153265342116356,-0.18204770982265472,-0.0033272053115069866,-0.023181095719337463,0.06496135890483856,0.04945569857954979,-0.1752852499485016,0.02737734280526638,-0.07327092438936234,-0.11832422018051147,0.17070719599723816,0.04279228672385216,-0.16204716265201569,0.07061496376991272,0.05765298753976822,0.1321810632944107,-0.15287882089614868,0.10383147746324539,-0.1979876160621643,0.23039692640304565,-0.019337430596351624,0.1723574697971344,0.18262414634227753,0.039922572672367096,0.06238382309675217,-0.14819298684597015,-0.15845231711864471,-0.0021120798774063587,-0.14656664431095123,0.09063973277807236,-0.1362319439649582,-0.13814881443977356,-0.02640223689377308,0.06389754265546799,0.12172770500183105,0.0007076358888298273,-0.02700408175587654,0.19323372840881348,-0.07447570562362671,0.0656508281826973,0.07307647913694382,0.006010095588862896,-0.16879507899284363,0.10543076694011688,0.08105283975601196,0.07678593695163727,0.03172862157225609,-0.09996631741523743,-0.18987511098384857,0.16143091022968292,-0.09714870899915695,-0.1126420870423317,-0.1460619568824768,-0.17764076590538025,-0.06630782783031464,-0.09577903151512146,0.037327710539102554,0.060072433203458786,0.02269657514989376,0.013185346499085426,-0.05480564013123512,-0.20140193402767181],[-0.10703539103269577,-0.014994768425822258,-0.22045762836933136,0.04041315242648125,-0.13049541413784027,0.06973578035831451,-0.1160879135131836,0.14786390960216522,-0.19184470176696777,-0.2436058223247528,-0.31537774205207825,0.26640504598617554,-0.055575139820575714,0.24748243391513824,-0.23417004942893982,-0.14669477939605713,-0.3391103744506836,-0.12415055930614471,0.12904231250286102,-0.4534071683883667,0.1087760254740715,-0.17682498693466187,-0.5459069609642029,-0.13614416122436523,0.03559146448969841,-0.23273520171642303,0.08239828795194626,-0.23753046989440918,-0.09854938089847565,0.03649698570370674,-0.17480222880840302,-0.09774114191532135,0.41910964250564575,-0.13939929008483887,-0.16061539947986603,-0.1255670040845871,-0.00012257964408490807,-0.19854888319969177,0.24005773663520813,-0.326976478099823,-0.38635730743408203,-0.16056787967681885,0.16097891330718994,0.17712005972862244,-0.061269648373126984,0.29823383688926697,0.23798859119415283,0.024211186915636063,0.379684180021286,-0.3075467050075531,0.2553443908691406,0.09027363359928131,-0.14700579643249512,0.14036208391189575,-0.18596743047237396,-0.047566309571266174,0.07330164313316345,-0.367582768201828,0.01126171462237835,0.006620184518396854,0.19500000774860382,0.08786220848560333,0.3669739365577698,0.1542397290468216],[-0.11590736359357834,0.0843924880027771,0.008364985696971416,-0.1887938678264618,0.1872425675392151,-0.026936251670122147,0.17312085628509521,0.07471261918544769,-0.11330071836709976,0.04848184064030647,0.09407380223274231,-0.1782231330871582,0.021471839398145676,-0.04172856733202934,0.20764274895191193,-0.19299820065498352,0.1687995046377182,-0.09069520980119705,-0.021528098732233047,0.10963495075702667,-0.17326490581035614,0.19761060178279877,0.11488863080739975,-0.08282457292079926,0.1108226329088211,0.06102835014462471,-0.12559102475643158,0.18356916308403015,0.1385836899280548,0.06415621936321259,-0.05943908169865608,0.24529458582401276,-0.04439479857683182,0.2533566355705261,-0.18492726981639862,0.182509645819664,0.19657312333583832,0.19524012506008148,-0.24668045341968536,0.03764663264155388,-0.09221985191106796,-0.17984017729759216,0.06000765785574913,0.04131609946489334,0.07130930572748184,-0.05119484290480614,-0.0754980593919754,-0.19496969878673553,-0.03244567662477493,0.1995418220758438,0.09529117494821548,-0.016324179247021675,-0.12877805531024933,-0.0101423729211092,-0.056235406547784805,0.22046726942062378,0.02591538615524769,-0.05989617854356766,0.15618932247161865,-0.18732644617557526,-0.09517944604158401,-0.10332362353801727,0.10536202043294907,0.021240996196866035],[-0.08718583732843399,0.13459929823875427,0.07045949250459671,0.14145535230636597,0.03256048262119293,0.02834729105234146,-0.031478751450777054,0.01366482488811016,0.09575562179088593,0.2024814635515213,-0.043822191655635834,-0.11400484293699265,0.014458782970905304,-0.018655557185411453,0.19766820967197418,0.08230501413345337,-0.020640477538108826,0.15735554695129395,0.16971959173679352,0.023809630423784256,-0.17704364657402039,0.029293524101376534,-0.09871286153793335,-0.004420862998813391,0.15440349280834198,-0.17047752439975739,0.13118615746498108,-0.10768451541662216,0.09990344196557999,0.11247668415307999,-0.0635046437382698,-0.07583356648683548,0.17844267189502716,-0.057683832943439484,0.11059734225273132,0.10539671778678894,-0.04398161172866821,-0.016044044867157936,-0.19715407490730286,0.14405913650989532,0.0839318335056305,0.10578378289937973,-0.0823507308959961,-0.03594173118472099,0.08717770874500275,-0.12019432336091995,0.016233347356319427,-0.1348506510257721,-0.013770965859293938,0.1457718163728714,0.054143279790878296,-0.06787522882223129,0.06364869326353073,0.024355145171284676,0.20594394207000732,0.1514974683523178,-0.14572225511074066,-0.010794740170240402,0.06877094507217407,-0.04332956299185753,0.02190561406314373,0.09005764871835709,-0.09714148193597794,0.06294498592615128],[0.028076181188225746,0.17984093725681305,0.22280241549015045,-0.14265134930610657,-0.14445121586322784,-0.05089220777153969,0.1520877480506897,0.015567412599921227,-0.01804320327937603,-0.11967042088508606,0.05966866388916969,-0.049394793808460236,-0.172201007604599,-0.19310308992862701,0.151872456073761,-0.040836092084646225,0.16830500960350037,0.13520990312099457,-0.004040247295051813,-0.044514354318380356,0.16584350168704987,0.05571015924215317,0.16940081119537354,-0.07090768218040466,0.0005252885166555643,0.03926055133342743,0.09701205790042877,-0.017590109258890152,0.015078992582857609,0.07426995784044266,-0.05342669412493706,0.2003900706768036,-0.23602129518985748,-0.019260816276073456,0.06799326837062836,0.13643455505371094,0.044428229331970215,-0.14086398482322693,-0.2364674061536789,-0.02078697644174099,0.2484302818775177,-0.06049594655632973,0.09021858870983124,0.026659077033400536,-0.12947030365467072,0.004606836941093206,0.09608770161867142,-0.15024334192276,-0.1892203986644745,0.050096072256565094,-0.07486754655838013,0.08910194784402847,-0.12123719602823257,0.11408422887325287,0.05164961889386177,-0.0025065976660698652,0.05676721781492233,-0.042350348085165024,-0.048122335225343704,-0.13874341547489166,0.045061271637678146,-0.12076990306377411,0.03084385022521019,0.08473670482635498],[0.09244036674499512,0.03192276507616043,-0.10824092477560043,0.15143780410289764,-0.12835772335529327,0.16136719286441803,-0.04018017649650574,-0.16375982761383057,0.08918522298336029,-0.1737833023071289,0.11958562582731247,0.03191697224974632,-0.09398441016674042,-0.004683509934693575,-0.24124707281589508,-0.09978265315294266,-0.05303022265434265,-0.01860111579298973,-0.11764483153820038,-0.2371092140674591,-0.026035547256469727,-0.2552851140499115,0.10285245627164841,-0.040454600006341934,0.119838185608387,-0.07305872440338135,0.1167682409286499,0.15202757716178894,-0.03667879104614258,-0.1725701540708542,0.16974031925201416,0.11947419494390488,0.10245662182569504,-0.10550028085708618,0.06116489693522453,-0.08476033061742783,-0.08635040372610092,-0.1285659670829773,0.15926413238048553,0.09929504245519638,-0.2292180061340332,-0.13438640534877777,-0.16847127676010132,-0.08701621741056442,0.19522735476493835,-0.1438460648059845,0.2040298581123352,0.18037360906600952,0.1592489778995514,-0.16177769005298615,0.16539524495601654,0.1299118995666504,-0.08069688081741333,0.07639887928962708,-0.13434407114982605,0.09795717149972916,0.08949696272611618,-0.1758962869644165,0.08066307008266449,0.09691911935806274,0.08677066117525101,0.11991161853075027,-0.048058222979307175,0.021907169371843338],[-0.08467262238264084,-0.18245700001716614,0.18638436496257782,0.14873149991035461,-0.03972769156098366,0.19022168219089508,-0.11375343799591064,0.13995210826396942,-0.04196208715438843,0.06995908915996552,0.10915322601795197,-0.06016542762517929,-0.1889074295759201,0.1145109310746193,0.1294160932302475,-0.04480427876114845,0.22159148752689362,-0.019171416759490967,0.1938050538301468,0.18250712752342224,0.00871964730322361,-0.16564038395881653,0.19909437000751495,-0.0631408840417862,-0.19003063440322876,0.18929913640022278,0.01625540852546692,-0.08649574220180511,0.11034157127141953,-0.14786022901535034,-0.14983013272285461,0.17173801362514496,-0.1698959916830063,0.16869087517261505,0.14688065648078918,-0.08963418006896973,-0.00004502904994296841,-0.13833709061145782,-0.22854451835155487,-0.07877691090106964,0.1601751148700714,-0.18348588049411774,-0.14099238812923431,0.14981776475906372,-0.10842909663915634,-0.014141022227704525,0.14091122150421143,0.12639446556568146,0.14838190376758575,-0.015868201851844788,0.12346241623163223,0.16619575023651123,-0.0745018795132637,0.0884246677160263,-0.14872737228870392,-0.04989055171608925,-0.0623922161757946,-0.09456537663936615,0.01738067716360092,0.1326659768819809,0.01712554320693016,0.030540693551301956,-0.23523730039596558,0.027971817180514336],[0.1542060226202011,-0.013514414429664612,0.1268114298582077,-0.04264580085873604,0.04648340865969658,0.1876000463962555,-0.12486184388399124,-0.15317799150943756,0.01342528685927391,0.002721173921599984,0.0014399578794836998,-0.13174360990524292,-0.0836496576666832,-0.1792098432779312,0.04663073271512985,0.10339097678661346,-0.08927279710769653,-0.0504472553730011,0.17255762219429016,0.32119837403297424,-0.023152902722358704,0.20171204209327698,0.31983399391174316,-0.09788482636213303,0.09434224665164948,0.18595263361930847,-0.1131497249007225,-0.0844169557094574,0.1504085659980774,0.14803357422351837,-0.1505197137594223,0.019872045144438744,-0.27120381593704224,0.1518108993768692,0.22930265963077545,-0.04937230795621872,0.19618234038352966,0.11490526795387268,-0.060859646648168564,-0.08395195007324219,0.30521994829177856,0.04378052055835724,0.06846832484006882,-0.10747548937797546,-0.16164545714855194,-0.18271774053573608,-0.17596685886383057,-0.04873709753155708,-0.21766236424446106,0.03789731115102768,0.08384675532579422,-0.08024708926677704,0.21801935136318207,-0.006326531060039997,0.23518459498882294,0.02980131283402443,-0.0452689602971077,0.22339463233947754,0.06787644326686859,-0.22033914923667908,-0.027049867436289787,-0.11843948811292648,-0.1202094703912735,-0.21714358031749725],[0.058255650103092194,-0.13600823283195496,0.19395974278450012,-0.0200716070830822,-0.18160341680049896,0.07942094653844833,0.15020224452018738,0.07583251595497131,-0.09935871511697769,0.18081234395503998,-0.10521933436393738,-0.023284586146473885,-0.011554816737771034,0.08027253299951553,-0.11205759644508362,-0.00574880326166749,0.13268506526947021,-0.08493747562170029,0.15882904827594757,0.05924273282289505,-0.06645731627941132,-0.0033210706897079945,0.019189629703760147,0.15027593076229095,0.023472106084227562,-0.04539914429187775,-0.11153664439916611,-0.1861780285835266,-0.06654874980449677,-0.11193527281284332,0.15053196251392365,-0.08521559089422226,-0.211111918091774,0.17086012661457062,-0.06934183835983276,0.16597995162010193,-0.017729267477989197,0.012862996198236942,-0.0014781097415834665,-0.10278339684009552,0.02835458517074585,0.19949853420257568,-0.18071982264518738,0.08580286055803299,0.1497499644756317,0.16488859057426453,0.14446236193180084,0.08738540858030319,-0.11019175499677658,-0.02959829941391945,-0.1819513738155365,-0.017560996115207672,0.057469695806503296,0.1271173506975174,-0.02480173110961914,0.11248672753572464,-0.1701541543006897,0.005469248630106449,-0.09176068753004074,-0.17227661609649658,0.044977348297834396,0.038769498467445374,-0.07650917023420334,0.06457626074552536],[0.17091988027095795,-0.13390174508094788,-0.1064758449792862,0.2296307235956192,0.07544668763875961,-0.14482785761356354,-0.13368824124336243,-0.14341001212596893,-0.14072652161121368,-0.2451854944229126,0.1283348798751831,0.10890055447816849,-0.013517821207642555,-0.03565363585948944,-0.05436686426401138,0.12757493555545807,-0.20656955242156982,0.18027324974536896,-0.06359218060970306,0.04088493064045906,0.0198577381670475,-0.11441347002983093,-0.2572445869445801,-0.08064474910497665,0.005427670665085316,0.07099045813083649,0.1354556679725647,-0.0153619684278965,0.20418795943260193,-0.11468047648668289,-0.07901648432016373,-0.14935782551765442,0.287679523229599,-0.08657604455947876,-0.09975199401378632,-0.008498107083141804,-0.023892896249890327,-0.19342823326587677,-0.016224341467022896,-0.14485511183738708,-0.12068572640419006,0.00505470484495163,-0.030551476404070854,-0.12441790103912354,0.14678798615932465,-0.09798997640609741,0.05359255149960518,-0.03273776173591614,0.17935708165168762,-0.24809715151786804,-0.06229763850569725,-0.15464626252651215,-0.15356825292110443,-0.1541476547718048,-0.13572843372821808,-0.207430899143219,0.09114731103181839,-0.10217301547527313,0.07493279129266739,-0.0005952843930572271,-0.09912306815385818,0.10485827922821045,0.11405246704816818,0.24304430186748505],[0.20536918938159943,-0.011543702334165573,0.10403939336538315,-0.10953014343976974,0.006524635944515467,0.06793230772018433,-0.06959681212902069,-0.1658996343612671,0.16481083631515503,-0.061533041298389435,0.283199280500412,-0.0387624055147171,-0.10837060958147049,-0.07006131857633591,0.12360788881778717,0.09035263955593109,0.12554946541786194,-0.03104800172150135,0.20172396302223206,0.3361033797264099,0.10125662386417389,0.07653291523456573,0.021456588059663773,0.0059002237394452095,-0.15215392410755157,0.053959812968969345,-0.2262151539325714,0.19501861929893494,-0.0713619515299797,0.13012640178203583,0.12625549733638763,0.14608214795589447,-0.15571114420890808,-0.07784583419561386,0.05177387222647667,0.2359423041343689,0.16556768119335175,-0.12413549423217773,-0.22648181021213531,0.008463901467621326,0.18311557173728943,-0.06659827381372452,-0.170961394906044,-0.03626497462391853,0.03364565223455429,0.013977832160890102,-0.149749755859375,-0.15215232968330383,-0.32694196701049805,-0.008025059476494789,-0.25172266364097595,-0.0029461225494742393,0.050179287791252136,-0.005407394375652075,0.28360509872436523,0.2507545053958893,-0.07842154055833817,0.27814021706581116,-0.023390311747789383,-0.12750427424907684,-0.11302138864994049,0.10108412057161331,-0.24513967335224152,-0.05648886412382126],[0.15102608501911163,-0.11615059524774551,0.21105171740055084,0.07853702455759048,0.20388847589492798,-0.09935414791107178,-0.17506259679794312,-0.1495942920446396,0.1293451189994812,-0.12109886854887009,0.2511853575706482,-0.09544823318719864,-0.1714267134666443,0.13627605140209198,0.15854263305664062,-0.15734581649303436,0.23244374990463257,-0.08677901327610016,-0.06171124055981636,0.026764491572976112,-0.0473073273897171,0.05628073215484619,0.042933300137519836,0.07791393250226974,0.1995595097541809,0.10509765893220901,0.0012635396560654044,0.08587151020765305,-0.06876745074987411,-0.14179344475269318,-0.006968009751290083,0.09258216619491577,-0.20768119394779205,-0.07887838035821915,0.07296840846538544,0.06224759295582771,0.17832538485527039,0.22956013679504395,-0.022438062354922295,0.12235236167907715,0.19001196324825287,0.01861921139061451,0.16880051791667938,0.043669410049915314,-0.0621923953294754,-0.24171406030654907,0.07346739619970322,0.08013217896223068,-0.12946905195713043,-0.1187460720539093,-0.12261424958705902,0.06513816118240356,-0.09536264836788177,-0.07480183988809586,0.19509190320968628,-0.03295435383915901,-0.0034852444659918547,-0.04818182438611984,0.2003123015165329,-0.11481836438179016,0.011825715191662312,0.09033602476119995,-0.10813271254301071,0.04933677241206169]],"biases":[0.09566883742809296,-0.19248606264591217,0.022817304357886314,-0.04139107093214989,-0.0588257797062397,-0.02420121617615223,-0.09394173324108124,0.1758549064397812,0.007863502018153667,-0.03745713084936142,-0.02541092038154602,-0.18012729287147522,-0.02693924866616726,-0.016114601865410805,-0.14885646104812622,0.11984040588140488,-0.04054000601172447,-0.06000111624598503,-0.2010047286748886,0.07480628043413162,-0.18691019713878632,0.10996805131435394,0.029084114357829094,0.07913298159837723,-0.03605268523097038,-0.011905960738658905,0.16144633293151855,0.15396751463413239,0.03907676041126251,0.15680038928985596,0.22508615255355835,0.005463628098368645]},{"weights":[[0.07295621186494827,-0.06116192787885666,0.10490705072879791,-0.057289306074380875,-0.04433135688304901,0.01950734667479992,0.0430557057261467,0.10080340504646301,-0.027311528101563454,0.16131359338760376,-0.0667014867067337,-0.1479099690914154,0.09709440171718597,-0.16639290750026703,-0.12372665852308273,0.041457489132881165,0.15025080740451813,-0.07631514221429825,0.0985954999923706,0.18008555471897125,0.16478553414344788,-0.10050705075263977,0.024670561775565147,0.06997624784708023,0.15040504932403564,0.06099531799554825,-0.06551194190979004,0.16159674525260925,-0.19440893828868866,0.1492820382118225,-0.123196542263031,-0.1347128003835678],[-0.18496385216712952,0.15810494124889374,-0.13338720798492432,0.07704562693834305,-0.08643960952758789,-0.04769565165042877,-0.18342582881450653,0.10377626866102219,0.1403798609972,0.030252063646912575,-0.1824275404214859,-0.1295526623725891,-0.15375147759914398,-0.045100219547748566,-0.12557218968868256,0.03675173595547676,0.14240774512290955,-0.13813339173793793,-0.049241624772548676,0.17100857198238373,0.03786633908748627,0.11603754013776779,-0.18210799992084503,0.15486037731170654,-0.06463722884654999,-0.11978834867477417,-0.15688787400722504,0.12808294594287872,0.08028633892536163,-0.11805186420679092,0.12889273464679718,-0.18667390942573547],[-0.03771917149424553,-0.29482313990592957,-0.21961252391338348,0.08417722582817078,0.16765008866786957,-0.12801283597946167,-0.03453482687473297,-0.08036427944898605,0.1894911825656891,0.1446993499994278,-0.16060294210910797,-0.23103395104408264,-0.04425464943051338,-0.09783709794282913,0.39712637662887573,0.07645528763532639,0.2074601948261261,-0.0031773948576301336,0.29515600204467773,0.12253513187170029,0.11377272754907608,0.43281519412994385,-0.2594723403453827,-0.19215157628059387,-0.16296711564064026,0.14443761110305786,-0.15335984528064728,-0.14582499861717224,0.06610234081745148,0.11223676055669785,-0.38016125559806824,-0.06015850231051445],[0.012770913541316986,0.019784176722168922,0.05347377434372902,0.057733431458473206,0.17521776258945465,-0.0477389357984066,-0.13609260320663452,0.1187383309006691,0.19551856815814972,0.10201182961463928,0.1872173547744751,0.06992753595113754,0.06337127089500427,-0.18402637541294098,-0.016472170129418373,-0.08747041970491409,-0.032392505556344986,-0.20082691311836243,-0.1242370530962944,0.18529486656188965,0.12100061029195786,0.16890130937099457,0.027071919292211533,-0.033404335379600525,0.0842379480600357,-0.1815890222787857,-0.02213556505739689,-0.09197357296943665,-0.004616290796548128,-0.09334591031074524,-0.11943977326154709,-0.09595434367656708],[0.17777730524539948,-0.28805485367774963,-0.32138726115226746,-0.010136428289115429,-0.10037549585103989,0.05827483907341957,0.13884863257408142,0.09481935203075409,0.036440521478652954,0.22932736575603485,0.013443845324218273,-0.3284634053707123,0.07298661768436432,-0.2511889338493347,0.01947123371064663,-0.019764861091971397,0.21337702870368958,-0.21929478645324707,0.23557287454605103,0.02436954714357853,-0.18801328539848328,0.20092381536960602,-0.08313649147748947,0.033629681915044785,-0.11948809027671814,0.12918095290660858,-0.0425676554441452,-0.20852236449718475,-0.030425798147916794,0.22499997913837433,-0.1444484293460846,-0.029998861253261566],[0.03351609781384468,0.4279475212097168,0.3247346878051758,0.25874578952789307,0.0313543900847435,0.15241606533527374,-0.20568431913852692,-0.19127754867076874,-0.3154205083847046,-0.004263358190655708,0.1550927311182022,0.3154686391353607,-0.017346462234854698,-0.08012686669826508,-0.29813963174819946,0.06091729924082756,0.12891101837158203,0.3936580419540405,-0.13256749510765076,-0.38755857944488525,-0.10775763541460037,-0.45775893330574036,0.3186225891113281,-0.1375453770160675,0.04292818531394005,-0.15950973331928253,-0.13040576875209808,0.21974720060825348,0.26376083493232727,-0.03972436487674713,0.42343297600746155,0.04682939872145653],[-0.08713667094707489,0.16212378442287445,0.14633744955062866,-0.17983189225196838,0.016078611835837364,0.13531078398227692,0.08077102154493332,0.15842603147029877,-0.2057824730873108,-0.1857403963804245,0.16342538595199585,-0.046751461923122406,0.11784470081329346,0.09976181387901306,-0.14800351858139038,-0.0702187716960907,-0.15727002918720245,0.15761727094650269,0.12701866030693054,0.05824956297874451,0.18880873918533325,-0.05361361429095268,-0.1325560212135315,0.16454310715198517,0.10018348693847656,-0.1642824411392212,0.03998022526502609,-0.06000487506389618,-0.11857342720031738,0.15996234118938446,-0.08896572142839432,-0.05551910400390625],[0.10247716307640076,0.03007272258400917,-0.18950507044792175,-0.008963314816355705,-0.13459986448287964,-0.006241116672754288,-0.12019236385822296,-0.19461777806282043,0.21930435299873352,0.04302043095231056,0.1017749011516571,0.006212490610778332,-0.12505421042442322,-0.16653111577033997,0.19175943732261658,-0.0603378526866436,0.01469584833830595,-0.09551604837179184,0.1295531988143921,0.11526091396808624,-0.06406600028276443,0.10053019225597382,-0.25271254777908325,0.12817475199699402,-0.029402561485767365,-0.007879829034209251,-0.20851176977157593,-0.030400438234210014,0.16356126964092255,0.18701641261577606,0.11654082685709,-0.1076408252120018],[0.09898830205202103,-0.021115703508257866,0.08493774384260178,0.12078211456537247,0.003751598997041583,0.1875990778207779,-0.13486525416374207,0.11155745387077332,0.2047118842601776,0.04464273527264595,0.02801714465022087,-0.24898192286491394,-0.18309451639652252,-0.2421995997428894,0.17945997416973114,-0.23786494135856628,-0.005585635546594858,0.012265550903975964,0.22447457909584045,0.24304509162902832,0.12858764827251434,0.18484391272068024,-0.01159304566681385,-0.17301735281944275,0.0916776955127716,-0.018147272989153862,0.14040975272655487,-0.28512027859687805,0.10747824609279633,0.22079531848430634,-0.2561763525009155,0.022216415032744408],[-0.04177618399262428,-0.37374410033226013,-0.31216031312942505,-0.2765190303325653,0.2612866759300232,-0.04289466142654419,0.28123605251312256,0.00929031241685152,0.10545811802148819,0.2582521438598633,-0.02035176008939743,-0.385947585105896,-0.11974876374006271,-0.1400594413280487,0.28441670536994934,-0.09446561336517334,-0.1562078297138214,-0.11634830385446548,0.33811748027801514,0.47542476654052734,-0.11937686055898666,0.5563483238220215,-0.3536595106124878,-0.017908858135342598,-0.17441238462924957,0.1737474501132965,-0.004084477201104164,-0.07265514880418777,-0.12106864154338837,0.020920900627970695,-0.3372373580932617,-0.22752627730369568],[-0.08464601635932922,-0.36323055624961853,-0.2581813633441925,-0.0909399688243866,0.1992473155260086,-0.09826944023370743,0.30597037076950073,-0.1146891638636589,0.25267526507377625,0.20629771053791046,0.0971042662858963,-0.3435300290584564,-0.0832393616437912,-0.10754945874214172,0.4252409040927887,-0.04779675602912903,0.004137036856263876,-0.34359776973724365,0.19040146470069885,0.4081061780452728,-0.07974183559417725,0.49171948432922363,-0.22900912165641785,-0.12705887854099274,-0.18143171072006226,0.300800621509552,-0.1982748806476593,-0.4519430696964264,0.08158765733242035,0.3795698285102844,-0.17828688025474548,-0.241032674908638],[-0.024497410282492638,0.11520000547170639,0.22557105123996735,0.015857122838497162,-0.20654739439487457,-0.025695426389575005,-0.04508397728204727,0.1453174203634262,0.04367392882704735,-0.03711216524243355,0.10739930719137192,0.15372923016548157,-0.20965348184108734,-0.017779195681214333,-0.17168565094470978,0.20449590682983398,-0.18642528355121613,0.27928459644317627,-0.1434459537267685,-0.29309895634651184,0.14639782905578613,-0.07958094030618668,0.04856252297759056,-0.005957247689366341,0.0736406221985817,-0.05959106236696243,0.2232504040002823,0.33867770433425903,0.21095432341098785,-0.08451265096664429,0.13176706433296204,0.048611193895339966],[-0.024484774097800255,0.13544130325317383,-0.019156023859977722,0.055507730692625046,-0.04890301823616028,0.09464827179908752,-0.11656918376684189,0.008077806793153286,-0.20030413568019867,0.0054474095813930035,0.19959737360477448,0.3917502760887146,-0.16319043934345245,-0.052708908915519714,-0.39215314388275146,-0.08808029443025589,0.15384596586227417,0.3886488378047943,-0.07169005274772644,-0.3449499309062958,0.1443985253572464,-0.4241391718387604,0.028304649516940117,0.1649874746799469,-0.060543205589056015,0.05794645473361015,0.016137707978487015,0.22370807826519012,0.21294084191322327,-0.18523547053337097,0.27210062742233276,0.241732656955719],[0.17061811685562134,-0.028922950848937035,0.07379049807786942,0.1232045441865921,0.023819027468562126,0.1507040560245514,-0.05029590427875519,0.03677910938858986,0.005528832320123911,-0.12162623554468155,-0.015138224698603153,-0.13098810613155365,0.06660781800746918,-0.25839856266975403,0.009669532999396324,-0.24377767741680145,-0.13048870861530304,-0.028793642297387123,0.000583978951908648,0.2665720582008362,0.16897132992744446,0.3510068356990814,0.09616672247648239,-0.17947091162204742,-0.06190226972103119,0.19071035087108612,0.018492545932531357,-0.1294899433851242,-0.10104981064796448,0.16177092492580414,-0.3130851089954376,0.085696280002594],[0.14581184089183807,-0.27012544870376587,-0.3811195492744446,-0.26115888357162476,0.08162688463926315,0.14063552021980286,0.2712387144565582,0.1155613586306572,0.20361734926700592,0.17267784476280212,0.07696737349033356,-0.2532905340194702,0.11398541927337646,-0.11338185518980026,0.45717430114746094,-0.11548134684562683,0.016632843762636185,-0.2415091097354889,0.18722888827323914,0.332816481590271,-0.08253639191389084,0.5680777430534363,-0.20911535620689392,0.023355916142463684,-0.291598379611969,0.001847699168138206,-0.2810615003108978,-0.45744314789772034,0.05098020285367966,0.32932302355766296,-0.11673050373792648,-0.3044924736022949],[0.14131206274032593,-0.4438972473144531,-0.21709349751472473,-0.24780350923538208,0.05062907934188843,-0.07880561053752899,0.11315762996673584,0.07774544507265091,0.2976539433002472,0.18957573175430298,-0.13993950188159943,-0.3676202893257141,0.07478594034910202,-0.10840665549039841,0.5353962182998657,-0.21554480493068695,0.1827738732099533,-0.3448777198791504,0.15981389582157135,0.5384262800216675,-0.14246167242527008,0.6191644668579102,-0.2300143539905548,-0.12231003493070602,-0.256710410118103,0.14747771620750427,0.031242365017533302,-0.18997308611869812,-0.10518024861812592,0.2803514003753662,-0.35052043199539185,-0.17321127653121948]],"biases":[0.034474700689315796,-0.09040635079145432,-0.14599721133708954,0.04679427668452263,0.04675746709108353,-0.15731099247932434,0.07582365721464157,-0.2008759081363678,0.07548052072525024,0.10086364299058914,-0.0840722844004631,-0.17181149125099182,-0.027707308530807495,-0.16006271541118622,-0.09421513229608536,-0.06169934943318367]},{"weights":[[-0.03486722335219383,-0.03797032684087753,0.7763074636459351,0.02352849766612053,0.5570308566093445,-1.253952145576477,-0.2628159523010254,0.20393948256969452,0.3170797526836395,1.054482102394104,1.1821479797363281,-0.8088654279708862,-1.0293773412704468,0.34036535024642944,1.1237199306488037,1.2980479001998901]],"biases":[-0.4756782352924347]}],"inputLookup":null,"inputLookupLength":0,"outputLookup":null,"outputLookupLength":0,"options":{"inputSize":0,"outputSize":0,"binaryThresh":0.5,"hiddenLayers":[64,32,16],"activation":"sigmoid","learningRate":0.01},"trainOpts":{"activation":"sigmoid","iterations":5000,"errorThresh":0.005,"log":true,"logPeriod":500,"leakyReluAlpha":0.01,"learningRate":0.01,"momentum":0.1,"callbackPeriod":10,"timeout":"Infinity","beta1":0.9,"beta2":0.999,"epsilon":1e-8}}