{"type":"NeuralNetwork","sizes":[33,128,64,20],"layers":[{"weights":[],"biases":[]},{"weights":[[-0.17814208567142487,-0.05347166582942009,0.1814253181219101,0.142298623919487,-0.015314467251300812,0.09089794754981995,0.005586400628089905,0.14807042479515076,-0.16440290212631226,0.03510066866874695,0.0483001284301281,-0.051205188035964966,0.18216806650161743,-0.02890564128756523,-0.1033160388469696,-0.18939794600009918,0.06027138605713844,-0.006022412329912186,0.1958455592393875,0.05776692181825638,0.09231504797935486,0.0884394496679306,-0.02041194774210453,0.19417181611061096,0.027662092819809914,0.15187695622444153,-0.12775757908821106,0.1390914022922516,-0.12194119393825531,0.005378743167966604,-0.02101045846939087,0.02792474627494812,-0.09179975092411041],[0.0429418720304966,0.057683203369379044,-0.14687323570251465,-0.08808284997940063,-0.19185975193977356,0.05305609107017517,0.004888827912509441,0.044434964656829834,-0.11397756636142731,-0.11457754671573639,-0.15587572753429413,0.058884359896183014,-0.08748045563697815,-0.07067815214395523,-0.02118533104658127,-0.12973622977733612,-0.02931446023285389,-0.13646510243415833,0.17649616301059723,0.18586526811122894,0.012429547496140003,-0.07642664015293121,0.0030045644380152225,-0.11383991688489914,-0.14761416614055634,0.08246611058712006,-0.16852939128875732,-0.12686268985271454,0.18148206174373627,0.04389335215091705,-0.11256582289934158,-0.18416078388690948,-0.16091418266296387],[-0.15798868238925934,-0.09127815812826157,0.09397467970848083,0.04816310107707977,0.15584935247898102,-0.11330951005220413,0.19360437989234924,-0.07584808021783829,-0.11489846557378769,0.051254693418741226,0.02538762241601944,0.16816243529319763,-0.19457685947418213,0.1579049676656723,0.07100450247526169,-0.16982296109199524,-0.0877310261130333,0.14867256581783295,-0.1038297787308693,-0.160933256149292,-0.02142551727592945,-0.05780543386936188,-0.18208670616149902,-0.15228551626205444,0.10610508173704147,0.06067683547735214,0.13152121007442474,0.03605575114488602,0.02145337127149105,0.1292058378458023,-0.08745245635509491,-0.1026969626545906,-0.09851421415805817],[0.054388705641031265,0.08227864652872086,-0.12004708498716354,0.008766031824052334,0.07913775742053986,0.01621483452618122,-0.10071816295385361,-0.10614822059869766,0.024901511147618294,0.11665961891412735,0.14521101117134094,0.020306425169110298,-0.14162194728851318,0.14910051226615906,0.1671716719865799,-0.17005957663059235,-0.09486643224954605,-0.05231489986181259,-0.10994819551706314,0.01812858134508133,-0.16558052599430084,0.04595370218157768,0.15045230090618134,-0.1975400745868683,-0.1181027963757515,0.19268788397312164,0.07873241603374481,-0.17888988554477692,0.11091319471597672,-0.15374718606472015,0.07584159076213837,0.1300506889820099,0.02420763671398163],[-0.1794125884771347,0.19129422307014465,-0.09033600240945816,0.08110003918409348,0.1721789389848709,0.1797349750995636,-0.12538288533687592,-0.12896203994750977,0.04044511914253235,-0.1927957683801651,0.040255118161439896,0.007919363677501678,0.057925496250391006,0.07775304466485977,0.14975331723690033,-0.16882511973381042,-0.04168917238712311,0.12954619526863098,-0.07359728962182999,-0.18745672702789307,-0.16199468076229095,-0.19710321724414825,0.18294204771518707,0.09067217260599136,0.08948931843042374,-0.01988695003092289,0.11562280356884003,-0.12573744356632233,-0.1494865119457245,0.13904517889022827,0.17153607308864594,0.12158899009227753,-0.1353030651807785],[0.11624070256948471,0.04077441617846489,-0.10366185009479523,0.038665689527988434,0.015158805064857006,-0.13096703588962555,0.04455677047371864,-0.16860824823379517,0.013575839810073376,-0.01936526596546173,0.1723765879869461,0.12788225710391998,0.05723917856812477,-0.0713200494647026,0.05313245579600334,0.07766076177358627,-0.003299454227089882,0.16618795692920685,0.12218887358903885,-0.19026106595993042,-0.0927828997373581,-0.15444481372833252,0.1441517174243927,-0.11002669483423233,0.16512899100780487,-0.0922262892127037,-0.17150764167308807,-0.059906452894210815,0.047725334763526917,-0.05662795901298523,-0.011936581693589687,0.1539185345172882,-0.13937197625637054],[0.19597898423671722,-0.17405639588832855,-0.029972147196531296,-0.17139914631843567,0.19639289379119873,-0.0758514553308487,-0.010688457638025284,-0.1077355369925499,-0.06639646738767624,-0.15584400296211243,-0.19342654943466187,0.10181450098752975,0.11760488152503967,-0.1856124848127365,0.14433275163173676,0.16332870721817017,0.017130792140960693,-0.05099738761782646,-0.08159071952104568,0.10160378366708755,-0.037343841046094894,0.07709050923585892,0.1888842135667801,0.058945510536432266,-0.1879483461380005,-0.10577575862407684,-0.1240842342376709,0.15284299850463867,-0.06753923743963242,0.19472552835941315,-0.1505482792854309,0.003813094226643443,-0.1724071204662323],[0.08134022355079651,0.14218667149543762,-0.12869805097579956,-0.020642684772610664,-0.023580875247716904,-0.08448847383260727,0.10915736854076385,-0.15772517025470734,-0.1709318310022354,-0.028971748426556587,0.04228829964995384,0.060745969414711,0.10390253365039825,0.0499933697283268,-0.1449003964662552,0.04750562459230423,0.06213455647230148,0.16380923986434937,-0.0907251313328743,-0.042114172130823135,-0.1997748762369156,0.12573078274726868,0.16697870194911957,-0.16260771453380585,0.11666370183229446,0.12031159549951553,0.14843511581420898,0.09404490888118744,0.01819109544157982,-0.0782913938164711,-0.06935317069292068,-0.17619165778160095,-0.04072388634085655],[0.1455557644367218,0.14027592539787292,0.04546397179365158,-0.16321386396884918,0.0019178412621840835,-0.10826803743839264,0.1248699426651001,0.019088147208094597,0.15449121594429016,-0.09203600138425827,-0.1763869971036911,-0.14519241452217102,-0.18286818265914917,-0.03560565784573555,-0.08017987012863159,0.088499054312706,-0.17413455247879028,0.07921629399061203,0.11444728076457977,0.11629637330770493,-0.17344607412815094,-0.08964263647794724,0.1499817669391632,0.07616143673658371,0.16151849925518036,0.12154953926801682,0.14677414298057556,0.02712252177298069,0.1764446198940277,-0.03690185397863388,-0.0021712828893214464,0.0220585148781538,0.1885739415884018],[-0.0014528733445331454,-0.1671723574399948,0.11376293003559113,-0.026790441945195198,-0.05881619453430176,-0.16720446944236755,-0.05159559100866318,-0.16538523137569427,-0.08367820084095001,0.011494343169033527,0.12877626717090607,-0.15770076215267181,-0.040634315460920334,0.007367752958089113,0.15885944664478302,0.07754334807395935,0.1507350355386734,-0.11313832551240921,0.02047707326710224,0.1385703682899475,0.11002681404352188,0.1255262792110443,0.10248533636331558,0.09209723025560379,0.15181158483028412,-0.13749383389949799,0.1973341554403305,0.08782250434160233,0.08442334830760956,-0.12493046373128891,-0.07877808809280396,-0.05760282650589943,-0.10205201059579849],[0.0284650307148695,-0.15578538179397583,0.15599600970745087,0.19042591750621796,0.19721807539463043,-0.015675142407417297,0.13506662845611572,-0.18618474900722504,0.008803527802228928,0.1240270733833313,0.039474718272686005,0.11064818501472473,-0.07119917869567871,0.03071451373398304,0.06726863235235214,-0.1905766874551773,0.18352462351322174,0.028957242146134377,0.07088536024093628,0.18054494261741638,0.1633998304605484,0.10557636618614197,-0.0390644408762455,0.00552073260769248,-0.11393609642982483,-0.01720191165804863,0.11395313590765,-0.04457293078303337,-0.10063359141349792,0.06942486763000488,0.0016220605466514826,-0.052167344838380814,0.03930722549557686],[-0.093348428606987,0.026445260271430016,0.1334085464477539,0.0776740089058876,0.08013118803501129,0.1182866021990776,-0.15796029567718506,0.00035158719401806593,-0.025834036991000175,-0.03824279084801674,-0.02113187499344349,0.06231440231204033,0.010112443938851357,0.046679578721523285,-0.17743492126464844,-0.19333049654960632,0.03245895355939865,-0.17024166882038116,0.16265738010406494,-0.17925439774990082,0.02662992849946022,-0.1423780918121338,-0.19992786645889282,0.16476115584373474,0.17816129326820374,0.17888903617858887,-0.023513630032539368,0.07377921044826508,-0.0800752341747284,0.09698878973722458,0.01813647709786892,-0.14178432524204254,-0.1552102267742157],[0.08286354690790176,-0.1251520812511444,0.11519581079483032,0.02999412827193737,-0.03854111582040787,0.023930715397000313,-0.09768020361661911,-0.14977450668811798,-0.009431262500584126,0.053133297711610794,0.05908672884106636,-0.04179223254323006,0.06622163951396942,-0.1700313687324524,-0.12849928438663483,0.15897692739963531,0.09222538024187088,-0.08106951415538788,0.1715533286333084,0.07267933338880539,-0.06768564879894257,0.09962517023086548,0.07539583742618561,-0.09451602399349213,-0.02680637314915657,-0.06835009902715683,0.011800943873822689,-0.020297879353165627,0.1906915158033371,-0.029848771169781685,0.02761058881878853,-0.07424389570951462,-0.08703238517045975],[0.05866936221718788,-0.03762142360210419,-0.08123600482940674,-0.18110527098178864,-0.12707145512104034,0.015153010375797749,-0.08120933175086975,0.174105703830719,-0.0912751704454422,-0.19535432755947113,0.14175474643707275,-0.18390975892543793,-0.1294221431016922,0.10163035243749619,-0.09170352667570114,-0.007788038346916437,-0.18825234472751617,0.027699943631887436,-0.07526574283838272,0.04365493357181549,0.09841792285442352,-0.1682436317205429,0.17476020753383636,-0.1488284170627594,0.08598282188177109,0.013583856634795666,-0.035398323088884354,0.031520627439022064,-0.06653997302055359,-0.19558760523796082,0.17932842671871185,-0.18184614181518555,-0.11159597337245941],[0.06688306480646133,0.15655185282230377,0.09058351069688797,0.00499872537329793,-0.1239737942814827,-0.16526496410369873,0.010774928145110607,0.15347731113433838,0.028850505128502846,-0.1978447288274765,-0.06488796323537827,-0.01199893094599247,0.18061137199401855,0.13911502063274384,0.06119883432984352,-0.15358221530914307,0.047666843980550766,0.11367541551589966,0.16538533568382263,-0.043266475200653076,0.11275836080312729,0.1752038598060608,0.02775605581700802,-0.1573113650083542,-0.19797493517398834,-0.1322355717420578,-0.03856304660439491,0.01592792384326458,-0.00884825736284256,-0.029720181599259377,-0.1418190449476242,0.08665595203638077,-0.06331998109817505],[0.049739859998226166,-0.1835065484046936,-0.014961439184844494,0.007183169014751911,-0.13736958801746368,0.1139332503080368,-0.09755317866802216,0.04787002131342888,-0.18582035601139069,0.06758280843496323,0.18322168290615082,-0.09819840639829636,0.09326529502868652,-0.1614493429660797,0.1264220029115677,-0.05963084474205971,0.17367328703403473,0.09866625815629959,-0.1635558009147644,-0.15221701562404633,-0.10132435709238052,-0.01308945007622242,0.1018691286444664,-0.07611117511987686,0.18117401003837585,0.17313967645168304,-0.16848453879356384,-0.06983968615531921,0.06751074641942978,0.00930693093687296,-0.038281235843896866,-0.09868070483207703,-0.03783191367983818],[-0.10489863902330399,-0.010020011104643345,0.05174512416124344,0.07374674826860428,0.1441427618265152,-0.03607291728258133,-0.060999397188425064,0.19166125357151031,0.17168575525283813,0.14108695089817047,-0.1707143783569336,0.007130112498998642,-0.15462271869182587,0.04774313047528267,-0.06272555142641068,0.11535950005054474,-0.019465355202555656,-0.04860435053706169,-0.08252108842134476,0.18852470815181732,-0.04504719749093056,-0.13974715769290924,0.027050916105508804,0.1686951369047165,-0.02050762064754963,-0.15734584629535675,0.16863533854484558,-0.19685335457324982,-0.10092344880104065,-0.1425810307264328,-0.0102993780747056,0.12450487911701202,-0.15475331246852875],[-0.04262286424636841,0.17350542545318604,0.16657310724258423,-0.18214111030101776,-0.10282736271619797,0.02650492824614048,0.18721367418766022,-0.03485965356230736,0.11443053930997849,-0.08431477844715118,-0.09971457719802856,0.09838327020406723,0.11115103960037231,0.005105065181851387,-0.05799486115574837,-0.022428549826145172,-0.18912829458713531,-0.14209336042404175,0.12523479759693146,0.17011117935180664,-0.0707901269197464,-0.028116807341575623,0.09743010997772217,-0.012855212204158306,0.07287141680717468,0.08364155143499374,-0.05728820711374283,0.09266344457864761,-0.10640674084424973,0.13791319727897644,0.10471935570240021,0.16004514694213867,0.10517548769712448],[0.0378139354288578,-0.013319388963282108,0.08932311087846756,0.14434900879859924,0.061558473855257034,0.10675033181905746,-0.17080318927764893,0.07256586104631424,0.0307819452136755,-0.09941055625677109,0.03212219476699829,0.18171487748622894,-0.1416601985692978,-0.09243723750114441,-0.1720026731491089,0.17141255736351013,0.17660947144031525,0.052687108516693115,0.14680297672748566,-0.020857427269220352,-0.16301891207695007,-0.1802198737859726,-0.18599434196949005,0.10610741376876831,0.08779260516166687,-0.046388812363147736,-0.13185425102710724,-0.15595291554927826,-0.07434580475091934,0.13929250836372375,0.14080964028835297,0.07142413407564163,0.06738333404064178],[-0.08888043463230133,0.10061751306056976,-0.14852020144462585,-0.09181424975395203,-0.10582888871431351,-0.029741091653704643,-0.012616102583706379,-0.18649359047412872,0.010404633358120918,-0.005819609388709068,-0.19601282477378845,-0.11789191514253616,-0.10623545199632645,-0.003597832517698407,-0.08385486155748367,0.083643838763237,0.17361097037792206,0.14267966151237488,-0.1613737940788269,0.10306382179260254,0.04355589300394058,-0.011544316075742245,0.10729552060365677,-0.19757963716983795,-0.1654568761587143,0.16354283690452576,0.19667978584766388,-0.06625555455684662,-0.058108046650886536,-0.11791709810495377,-0.1394282728433609,0.09022863954305649,0.09609995782375336],[0.13833364844322205,-0.1733587086200714,0.18617531657218933,0.12366925179958344,-0.171689972281456,0.06983634829521179,0.1761033684015274,0.07564134150743484,-0.061258599162101746,0.13003431260585785,-0.057708464562892914,0.09782334417104721,-0.012233132496476173,0.0023228779900819063,0.0171646811068058,-0.1997694969177246,0.09036770462989807,0.09869914501905441,0.07400868833065033,-0.0690266489982605,0.12003966420888901,-0.04061146080493927,-0.022233493626117706,-0.017661742866039276,0.19287681579589844,-0.19933736324310303,-0.1542809009552002,-0.1066029965877533,-0.18337009847164154,0.05691840872168541,0.1762564331293106,0.10954916477203369,0.15094894170761108],[0.14348287880420685,-0.11194457858800888,0.09067002683877945,-0.09188028424978256,-0.03940002620220184,-0.05202190950512886,-0.029754288494586945,-0.16703490912914276,0.1492103934288025,-0.1627124845981598,0.0592486709356308,-0.16496542096138,0.0009557818993926048,0.005410484503954649,-0.02180216647684574,-0.157016322016716,-0.02840099297463894,-0.02558707632124424,0.14156389236450195,0.13670632243156433,-0.08633679151535034,0.13014699518680573,-0.09189992398023605,-0.1748194396495819,-0.14302757382392883,0.0501180924475193,0.19851334393024445,0.00752214714884758,-0.06764492392539978,0.016969984397292137,0.02392531931400299,-0.19107842445373535,-0.161005899310112],[-0.11364836245775223,0.010830148123204708,0.17863227427005768,0.1148916631937027,0.13058651983737946,-0.0076715764589607716,0.19221274554729462,0.03026290237903595,0.019399352371692657,-0.03037598356604576,-0.09821173548698425,-0.10951170325279236,0.012203788384795189,0.1697130799293518,0.14061792194843292,0.16893567144870758,0.07946088165044785,0.1662149727344513,-0.15701892971992493,-0.12907563149929047,-0.1565963178873062,0.035682182759046555,0.16144812107086182,0.16926038265228271,0.12165049463510513,0.03976095840334892,-0.09295773506164551,-0.19969816505908966,0.09099125862121582,0.1440725028514862,0.011368411593139172,-0.005274574272334576,0.030846375972032547],[0.18217507004737854,0.17092512547969818,0.02922656759619713,0.0654921904206276,0.10200991481542587,0.11691635102033615,0.052950937300920486,0.09642747789621353,0.18352720141410828,0.048014115542173386,0.049631163477897644,0.142578125,0.12468960136175156,-0.1262960284948349,-0.18547745048999786,-0.04389532655477524,-0.1455906182527542,-0.027975836768746376,-0.1025901585817337,-0.11272433400154114,0.05638950690627098,0.0017236267449334264,-0.062296319752931595,-0.1122264415025711,0.06584238260984421,-0.19908258318901062,0.052245236933231354,0.00802956335246563,-0.18551211059093475,-0.11506716161966324,-0.18811410665512085,0.0781501978635788,0.10272018611431122],[-0.1548611968755722,-0.12114663422107697,-0.05438344553112984,-0.014217037707567215,-0.1645846664905548,0.12088006734848022,-0.07189447432756424,-0.09977351129055023,0.041022516787052155,-0.10531750321388245,0.08868518471717834,-0.12091308832168579,0.18128788471221924,0.11625376343727112,-0.05017712712287903,-0.13127461075782776,0.11158259958028793,-0.09019405394792557,-0.11355149000883102,-0.1772950440645218,0.07045472413301468,0.1251705437898636,-0.16354583203792572,0.15421271324157715,-0.17446517944335938,0.04256689175963402,0.1035650372505188,0.16069182753562927,0.05927689000964165,0.1953706592321396,-0.005347674246877432,0.058756787329912186,0.05005204677581787],[0.1449362188577652,0.16515234112739563,-0.03523333743214607,0.14714500308036804,0.17638030648231506,0.1540626883506775,-0.17972543835639954,-0.1558767706155777,0.05369585379958153,-0.03899899125099182,-0.1625904142856598,-0.1921769380569458,0.17970889806747437,0.16026388108730316,-0.17367462813854218,0.19066591560840607,-0.049639008939266205,-0.1579425036907196,-0.1616024374961853,-0.12231806665658951,0.017380554229021072,0.13768431544303894,-0.03730305656790733,-0.19574539363384247,-0.07439374178647995,0.1611180603504181,-0.13755790889263153,-0.025947347283363342,-0.10128261893987656,0.0013438613386824727,0.0073847402818500996,0.05457070469856262,0.1742396205663681],[-0.1525116264820099,-0.039692994207143784,-0.06458482146263123,-0.11292824894189835,0.18926413357257843,0.04527036473155022,-0.11515071988105774,-0.09577680379152298,0.020270440727472305,-0.1579141765832901,0.16656358540058136,0.03526007756590843,0.15570500493049622,0.15407513082027435,0.011198021471500397,-0.051864564418792725,-0.07160980254411697,-0.07795337587594986,0.18626169860363007,-0.12978923320770264,-0.10288549214601517,-0.02057669684290886,0.022596348077058792,0.08226152509450912,-0.14997129142284393,0.1636843979358673,0.1927020102739334,-0.059736572206020355,-0.03731709346175194,0.08416779339313507,-0.019611898809671402,0.13910074532032013,-0.18138910830020905],[0.06182677671313286,-0.12055932730436325,0.17233535647392273,0.039386238902807236,0.19300073385238647,0.06748127192258835,-0.08495607227087021,0.06124454736709595,0.08754045516252518,-0.197886124253273,-0.06448178738355637,-0.032827556133270264,-0.10093188285827637,-0.19558705389499664,0.10533776134252548,0.07262665778398514,0.041615866124629974,-0.12508559226989746,-0.05498023331165314,-0.003297516843304038,-0.1338941603899002,-0.0909765213727951,0.06596054136753082,-0.13034364581108093,0.15082800388336182,0.05341450870037079,0.04720544070005417,0.13400496542453766,0.166840061545372,0.018649229779839516,-0.19046051800251007,0.044671680778265,-0.0937570184469223],[-0.0026486096903681755,0.09554202854633331,0.008444846607744694,0.11762204021215439,0.19374831020832062,0.03416607901453972,-0.06306403875350952,0.0659884661436081,-0.04022733494639397,0.19935694336891174,0.193463534116745,0.190707728266716,-0.14735139906406403,0.19165121018886566,0.18742242455482483,-0.007091452367603779,-0.13546955585479736,-0.09155387431383133,-0.007927842438220978,0.0074731698259711266,-0.057319991290569305,-0.14604893326759338,0.10618118196725845,-0.19770951569080353,0.07446558028459549,-0.11137816309928894,0.09197121858596802,0.030013183131814003,0.07053373008966446,-0.13788379728794098,0.06830029934644699,0.015600873157382011,0.06994888931512833],[-0.16172517836093903,-0.06744862347841263,-0.18400268256664276,0.03632916882634163,-0.12817217409610748,-0.1023736223578453,0.1683293879032135,0.03472224622964859,0.18759281933307648,-0.06394919008016586,0.08284959942102432,-0.1004638746380806,-0.07147493958473206,0.04902128875255585,-0.07249294966459274,-0.1043296828866005,-0.1382717490196228,-0.015404538251459599,0.019740289077162743,0.008058905601501465,0.1761094033718109,-0.16023090481758118,-0.14803625643253326,0.11121468245983124,0.05755506828427315,-0.003113502636551857,0.1080203577876091,0.06850972771644592,0.1574820727109909,0.07790736854076385,-0.018381113186478615,0.022608961910009384,-0.040045805275440216],[-0.09607216715812683,0.14077138900756836,-0.08295341581106186,0.1263265758752823,0.19365999102592468,0.11653675138950348,0.034261446446180344,0.029996957629919052,0.011492181569337845,0.010563925839960575,-0.12471526861190796,0.11569945514202118,-0.16726051270961761,0.02859283983707428,-0.1415121704339981,0.11494843661785126,-0.021553916856646538,0.1594795435667038,0.11050760000944138,0.09433701634407043,-0.17882464826107025,-0.1275414675474167,0.1900498867034912,0.09182431548833847,0.0027768020518124104,0.1229817345738411,-0.10859987884759903,0.15445347130298615,0.01634298823773861,-0.10738328099250793,-0.06522398442029953,0.11171973496675491,0.008341221138834953],[-0.05855630338191986,-0.19738824665546417,0.12586767971515656,0.03376289829611778,-0.1630503088235855,-0.03172522038221359,0.05652312561869621,-0.08061077445745468,0.1603512316942215,0.05880255997180939,-0.18965056538581848,0.061568405479192734,0.09244866669178009,0.08704040944576263,-0.13479989767074585,0.08367238938808441,-0.09478317201137543,-0.07810608297586441,-0.05400489270687103,0.11120857298374176,0.030129386112093925,0.0014585891040042043,0.05706986039876938,0.06734231114387512,0.14046725630760193,-0.021846342831850052,-0.06474699825048447,-0.1361236572265625,0.18137362599372864,-0.1341206580400467,0.00021306837152224034,-0.048677071928977966,-0.024692365899682045],[-0.04925835505127907,-0.09445074200630188,0.12482532858848572,0.12674395740032196,-0.0877516120672226,-0.016129689291119576,-0.020037686452269554,-0.09162133932113647,-0.11075854301452637,-0.126628577709198,-0.03565943241119385,-0.012799778953194618,0.1109488382935524,0.0944160521030426,0.18016870319843292,0.08263520896434784,-0.07342424243688583,-0.07442666590213776,-0.19841670989990234,-0.0034188665449619293,0.16961291432380676,-0.09505616128444672,0.01635604538023472,0.15286403894424438,-0.15578778088092804,0.06657420843839645,0.18506385385990143,0.16180695593357086,0.12610992789268494,-0.04078276827931404,-0.09722485393285751,-0.1100783571600914,0.1288469433784485],[-0.027499984949827194,0.12361928820610046,0.16626888513565063,0.11772803962230682,-0.08221657574176788,0.17630426585674286,-0.061417680233716965,0.03796301782131195,0.1579505056142807,-0.1956155002117157,-0.15618591010570526,-0.16944237053394318,-0.1948394775390625,-0.08445657044649124,-0.14644335210323334,0.1735142022371292,-0.015699448063969612,0.1404942125082016,-0.19450126588344574,-0.04910994693636894,-0.19994977116584778,0.05723623186349869,0.029505882412195206,-0.19279174506664276,-0.17421773076057434,-0.16729693114757538,0.1251547783613205,0.05736491084098816,-0.051284924149513245,-0.011661505326628685,-0.05532228946685791,-0.1325671672821045,0.05186900496482849],[0.1183081716299057,-0.19462950527668,-0.005038227885961533,-0.11883271485567093,-0.08615879714488983,-0.03850702568888664,0.018862182274460793,-0.08358694612979889,0.11100716888904572,-0.18221858143806458,-0.023042691871523857,-0.1330137997865677,-0.1847681850194931,0.17591910064220428,-0.09168387949466705,-0.011639461852610111,-0.12204007804393768,-0.15910890698432922,-0.1042817085981369,-0.18120869994163513,-0.09717576950788498,-0.10275442898273468,0.06719016283750534,0.09458661824464798,0.15133246779441833,0.13740943372249603,0.04502061381936073,0.14629867672920227,0.11436889320611954,0.039676371961832047,0.11553981155157089,0.040286339819431305,-0.0365804098546505],[0.18184299767017365,-0.019919827580451965,0.004245043732225895,-0.034771889448165894,0.08535201102495193,0.13394485414028168,-0.03013272024691105,-0.09527144581079483,0.19924454391002655,-0.15316526591777802,-0.04874980449676514,-0.11111363023519516,-0.02440914325416088,0.18091920018196106,0.154915452003479,0.09770091623067856,0.10491950809955597,-0.0883353129029274,-0.1630374640226364,-0.01477622240781784,-0.16705964505672455,-0.18350008130073547,0.03507907688617706,-0.19233423471450806,-0.09043412655591965,-0.08418812602758408,0.19422173500061035,-0.006074343342334032,-0.11168915033340454,-0.09713549166917801,-0.19364269077777863,0.05627364665269852,0.006619221530854702],[0.19732241332530975,-0.09735559672117233,-0.13619382679462433,-0.08858446031808853,0.09212306886911392,0.01593177206814289,-0.02245997078716755,0.022409843280911446,-0.04040462523698807,-0.08751732110977173,0.13228555023670197,-0.14871761202812195,0.004476855508983135,0.04308062791824341,0.18169860541820526,-0.1652277708053589,-0.18418803811073303,0.18612441420555115,0.05771719664335251,-0.13130375742912292,-0.17487013339996338,-0.027023442089557648,-0.0034990303684026003,-0.10528439283370972,0.07985424995422363,-0.10025712847709656,0.02477436140179634,-0.021170202642679214,0.10918831080198288,-0.17864452302455902,0.06814906001091003,-0.10827852785587311,-0.03532290458679199],[-0.07876323908567429,-0.17649659514427185,0.05032352730631828,0.007152947131544352,0.029559645801782608,0.12200383096933365,-0.1075119748711586,-0.058321110904216766,-0.15154679119586945,-0.18144477903842926,-0.1588764190673828,-0.11232156306505203,0.04274481534957886,0.04414602369070053,0.11300529539585114,0.05034813657402992,-0.1488853245973587,0.07590590417385101,-0.007353690918534994,0.011791910976171494,0.06506893038749695,0.07452552020549774,0.024615837261080742,-0.08990419656038284,0.1275152713060379,0.18761999905109406,-0.19603046774864197,0.04934636875987053,-0.1046389788389206,-0.06737709045410156,0.13665184378623962,-0.023208001628518105,0.096637062728405],[0.06459204852581024,-0.13763698935508728,-0.11519014090299606,0.0014044555136933923,0.14242789149284363,-0.16622895002365112,0.13694101572036743,0.025674834847450256,-0.15354207158088684,0.018539858981966972,0.12000557780265808,-0.16663755476474762,0.07428848743438721,-0.0993196964263916,0.11071043461561203,0.011205578222870827,0.1867976039648056,0.1564338505268097,-0.043796710669994354,0.17080695927143097,0.0311647467315197,0.06940311193466187,0.0508837029337883,0.020213674753904343,0.13801421225070953,0.08722252398729324,-0.016048239544034004,-0.15114031732082367,0.012408205308020115,0.09242025017738342,-0.09990976005792618,-0.18038974702358246,0.03875855728983879],[0.02276812121272087,-0.08036378026008606,-0.05684034526348114,0.10404390841722488,-0.06483956426382065,-0.13462720811367035,0.10652822256088257,-0.07461925595998764,-0.05799747258424759,-0.149126335978508,0.051745980978012085,0.16301871836185455,-0.020159758627414703,0.1928853690624237,-0.0445312075316906,0.06980101019144058,0.04793049395084381,-0.0009830330964177847,0.011911220848560333,-0.12908239662647247,-0.15939408540725708,-0.0032479625660926104,0.020841451361775398,-0.06491882354021072,-0.09128643572330475,0.12732480466365814,0.13751384615898132,-0.18843545019626617,0.09903790056705475,-0.1430993676185608,0.04377388954162598,0.18889838457107544,-0.03670034185051918],[-0.1288730800151825,0.06067890673875809,-0.08720608800649643,-0.0002122608566423878,0.16223959624767303,-0.16512763500213623,0.1332942098379135,-0.08574392646551132,-0.07326961308717728,0.1362045258283615,-0.12314563989639282,-0.03189427778124809,0.15707586705684662,-0.1529645174741745,-0.01738116517663002,-0.12054494023323059,0.13822144269943237,-0.10797425359487534,0.1848360151052475,0.049392666667699814,0.005529971793293953,0.006691245827823877,-0.05004905164241791,0.05704006180167198,-0.02398967370390892,-0.08713953197002411,0.07974808663129807,0.10992847383022308,-0.19451697170734406,0.026578156277537346,0.1737438440322876,-0.037622448056936264,-0.14258258044719696],[-0.14543989300727844,0.010463547892868519,0.19223234057426453,-0.05787929892539978,0.013759667985141277,0.055702708661556244,0.003217108780518174,0.028495917096734047,-0.005980614572763443,0.15692177414894104,-0.05983616039156914,-0.03366762027144432,0.18346141278743744,-0.01529035996645689,0.14003349840641022,0.057680800557136536,-0.07184642553329468,0.02370269224047661,-0.18283548951148987,-0.024834347888827324,-0.07381796091794968,-0.14488235116004944,-0.08306320756673813,-0.1948184221982956,-0.19398553669452667,-0.02696407213807106,-0.05432642996311188,-0.1765909492969513,-0.10715287178754807,0.16307568550109863,0.1680074781179428,0.09978164732456207,0.14703094959259033],[-0.0366978645324707,-0.13160598278045654,-0.19037450850009918,-0.048962485045194626,0.15584905445575714,0.1278180330991745,-0.19626806676387787,-0.11581221222877502,-0.12789063155651093,0.12170147150754929,0.1954425871372223,0.00886519905179739,-0.09382385015487671,-0.14157648384571075,0.08251279592514038,0.016841130331158638,-0.1585151106119156,-0.14562341570854187,-0.13767899572849274,0.06531518697738647,0.10949951410293579,0.14822927117347717,0.04761577397584915,0.1503724455833435,-0.01255931705236435,0.01573982834815979,0.14181804656982422,0.05548510327935219,0.03337420895695686,0.19007529318332672,-0.1640559434890747,-0.1965181827545166,-0.04089057818055153],[-0.08587688207626343,-0.06281401962041855,0.18128718435764313,0.10741893947124481,-0.1846660077571869,-0.09286844730377197,-0.056461233645677567,0.099070243537426,-0.10665207356214523,-0.1757499873638153,0.12524336576461792,0.09845253825187683,0.034038592129945755,0.11144804954528809,0.000247708463575691,-0.109078049659729,0.05811386555433273,-0.10177599638700485,-0.14683887362480164,0.19749927520751953,0.13379517197608948,0.07583063095808029,0.054832637310028076,0.17387433350086212,0.19784663617610931,-0.18720197677612305,-0.009140179492533207,0.07397956401109695,0.04399386793375015,0.0574936680495739,-0.10959544032812119,-0.10021473467350006,0.10553625971078873],[-0.0759432464838028,0.026021437719464302,0.12356410175561905,-0.1462419331073761,0.16670875251293182,0.037625230848789215,0.0871514230966568,0.0937061607837677,0.1782296597957611,0.1007828488945961,-0.10917625576257706,-0.10606938600540161,0.05004432797431946,-0.05892358720302582,-0.1341148018836975,-0.16391924023628235,0.07441966980695724,0.08824034035205841,0.11898240447044373,-0.1931733638048172,0.1550322324037552,-0.17776131629943848,0.0611308254301548,0.17597323656082153,0.09393176436424255,-0.06589808315038681,-0.13460847735404968,-0.10296930372714996,0.1748669594526291,0.16309639811515808,0.0575944259762764,0.01955188438296318,0.15654510259628296],[-0.1994658261537552,0.0797371044754982,-0.0061690895818173885,0.15642677247524261,-0.048554420471191406,0.04030962660908699,-0.0765308067202568,-0.18712401390075684,-0.09892153739929199,-0.0027874368242919445,0.15100397169589996,0.006491189356893301,0.15101563930511475,-0.12399538606405258,0.05976893752813339,-0.1750817447900772,0.05002613365650177,0.016783101484179497,-0.0022023520432412624,0.0785050019621849,0.0753888338804245,0.09974368661642075,-0.09566858410835266,0.07122689485549927,0.07911545783281326,-0.0016756829572841525,0.047894638031721115,-0.04284198209643364,0.06715127825737,0.03677188605070114,0.163633331656456,-0.16640059649944305,0.012481807731091976],[-0.19255372881889343,-0.19749481976032257,-0.07901939004659653,0.12154547870159149,-0.045003850013017654,-0.11136180907487869,-0.16013731062412262,0.12075953185558319,-0.006494298577308655,-0.0062977406196296215,-0.175463005900383,0.06845316290855408,-0.13725312054157257,0.01037902943789959,0.1284339725971222,0.04453166946768761,-0.023682011291384697,-0.16106562316417694,0.0077231223694980145,0.06919179856777191,0.04607890546321869,0.0577407144010067,-0.031007608398795128,-0.07092311233282089,0.12463254481554031,0.11851097643375397,-0.12502650916576385,0.1623310148715973,0.13201533257961273,-0.16259869933128357,-0.139956533908844,-0.09718459099531174,0.1989576667547226],[-0.17174126207828522,0.016529293730854988,0.012783482670783997,-0.1104385256767273,-0.11028101295232773,0.13075174391269684,-0.016506116837263107,0.14849679172039032,-0.09758082032203674,0.10400363802909851,0.046496063470840454,0.13686902821063995,-0.014455307275056839,0.18543082475662231,0.16063301265239716,-0.16281962394714355,-0.035782307386398315,0.014358137734234333,-0.14945560693740845,0.11769573390483856,-0.1844812035560608,-0.09406626224517822,0.09981799125671387,0.11195298284292221,-0.16676795482635498,-0.13519883155822754,-0.016784939914941788,0.19351261854171753,-0.05200215429067612,0.011493116617202759,-0.11982517689466476,0.006162463221698999,0.18723779916763306],[-0.11426977068185806,0.11896663159132004,0.14762645959854126,0.12083324790000916,0.19315852224826813,0.19649876654148102,-0.07413771748542786,0.06492495536804199,0.16926617920398712,-0.06356997042894363,-0.14094297587871552,0.044168516993522644,-0.14604569971561432,0.011941586621105671,0.020578105002641678,0.12392447143793106,0.0762183666229248,0.13506396114826202,0.1338268667459488,-0.17273502051830292,0.12907762825489044,-0.05845768004655838,0.18790075182914734,-0.17464476823806763,0.0270413625985384,-0.14851337671279907,-0.04277735576033592,-0.15395043790340424,-0.0431210957467556,0.19684350490570068,-0.18765585124492645,0.08292600512504578,-0.07049418240785599],[-0.16544370353221893,-0.07371587306261063,0.10310504585504532,-0.14437176287174225,0.16054996848106384,0.14023858308792114,-0.024517759680747986,-0.05676403269171715,0.025579869747161865,0.1712852567434311,0.15037901699543,-0.07515796273946762,0.03084040805697441,0.11995773762464523,-0.18362802267074585,-0.15985475480556488,-0.08782456815242767,-0.11530406773090363,-0.03946003317832947,0.031428467482328415,0.16362586617469788,0.05456842854619026,0.12898805737495422,0.020232724025845528,0.0023241934832185507,-0.03949468582868576,0.12072726339101791,0.09883003681898117,-0.09316714853048325,0.08014928549528122,0.09272515028715134,0.13378266990184784,0.18288353085517883],[-0.03577607870101929,-0.10832978785037994,0.157227024435997,-0.07134968787431717,0.0990232452750206,-0.14224711060523987,-0.10884945094585419,-0.13236545026302338,0.17788176238536835,0.1987326741218567,0.17773380875587463,-0.18600158393383026,-0.198651984333992,-0.1484004110097885,0.06131964549422264,-0.05226455628871918,0.017015717923641205,0.1900990605354309,-0.17914517223834991,0.1438867598772049,-0.07339227199554443,0.03187842667102814,0.16220569610595703,-0.030956357717514038,-0.022556401789188385,-0.11972764879465103,0.14133727550506592,0.04166223853826523,-0.14770649373531342,-0.08189459145069122,0.18502433598041534,-0.03659859672188759,-0.05092135816812515],[0.1538076251745224,0.1927611529827118,-0.14787334203720093,0.06375410407781601,0.08627887815237045,0.14261049032211304,-0.05975240841507912,-0.13653475046157837,0.09656166285276413,0.09047461301088333,-0.07921050488948822,0.16310377418994904,-0.03382278233766556,0.17157742381095886,0.14943858981132507,-0.07768814265727997,-0.03535022959113121,-0.042861733585596085,-0.1713380217552185,-0.1508774608373642,0.07112844288349152,-0.08689828217029572,-0.12901459634304047,0.08260682970285416,0.032166387885808945,-0.03728416934609413,0.16320572793483734,-0.07237011194229126,0.19459626078605652,0.177987739443779,0.1024678647518158,-0.12953847646713257,-0.0352741964161396],[0.10136844962835312,-0.032418739050626755,-0.08991246670484543,0.14251470565795898,0.042508650571107864,-0.05119470879435539,-0.003602994605898857,-0.15941479802131653,-0.1090753823518753,-0.12207412719726562,0.009197499603033066,-0.15142862498760223,-0.05900689959526062,-0.06037458777427673,-0.042769890278577805,-0.19025424122810364,0.020470425486564636,-0.015536022372543812,0.02521354705095291,0.050082363188266754,0.07082527130842209,-0.03241546452045441,0.1945669800043106,0.09077144414186478,0.17770232260227203,0.09369582682847977,-0.14982746541500092,0.08749900758266449,0.06389137357473373,-0.13950885832309723,-0.06200328469276428,0.1278746873140335,-0.06930261105298996],[0.18329942226409912,0.12289883941411972,0.1757827252149582,0.07739732414484024,0.044827502220869064,-0.13304276764392853,-0.10122711211442947,0.024869566783308983,-0.05645909532904625,-0.14954328536987305,-0.07707127183675766,-0.0719040259718895,0.13738597929477692,0.02618122473359108,-0.020253553986549377,-0.06362005323171616,0.09830615669488907,-0.10692735761404037,-0.19267961382865906,-0.011500822380185127,-0.12621869146823883,-0.08864874392747879,0.04083695262670517,0.11718473583459854,0.08691129088401794,-0.0417812317609787,-0.10800328850746155,-0.038745202124118805,0.04656652361154556,0.042894475162029266,-0.05136306956410408,0.03431975096464157,0.098907969892025],[-0.15030917525291443,0.18002630770206451,0.04258143901824951,-0.08813780546188354,0.13272085785865784,0.19370873272418976,0.12841796875,-0.02081325650215149,0.058260586112737656,-0.14015549421310425,0.1877211630344391,0.1273818016052246,-0.00793445948511362,0.12756487727165222,-0.06437921524047852,-0.04676251858472824,0.06917455792427063,0.06802918761968613,0.03788669779896736,0.0885673314332962,-0.15654700994491577,0.1722930520772934,-0.0152649637311697,0.10544563829898834,-0.15109382569789886,0.0897817313671112,0.07647710293531418,0.17081212997436523,-0.1678265929222107,-0.17161183059215546,0.12086480855941772,-0.03360339626669884,0.02855282835662365],[-0.11870738118886948,-0.06888308376073837,-0.07797130942344666,-0.004857093095779419,0.00009029860666487366,-0.04998905211687088,-0.1310601383447647,0.04761733114719391,0.07898803055286407,0.1389247328042984,0.15346109867095947,0.16719679534435272,0.1757946014404297,-0.04974930360913277,-0.01365471351891756,-0.05876987800002098,0.09959347546100616,0.02146098203957081,0.04998873174190521,0.013399009592831135,-0.15794949233531952,0.19896619021892548,0.06454169005155563,-0.08604859560728073,-0.16834703087806702,-0.12017958611249924,-0.15641579031944275,0.18564948439598083,-0.11867895722389221,-0.0940222516655922,-0.09518340975046158,-0.09458421170711517,0.1771860122680664],[0.014515649527311325,0.13418759405612946,0.0483664870262146,-0.019918527454137802,-0.19241781532764435,-0.08188332617282867,0.14566777646541595,0.12193885445594788,-0.08839575946331024,0.10903836786746979,0.17540384829044342,0.16733145713806152,0.052232395857572556,-0.018442142754793167,-0.09734780341386795,-0.06406858563423157,-0.06518848985433578,-0.13757586479187012,0.18925808370113373,0.1197022944688797,-0.1098071038722992,-0.1601770967245102,-0.01768520660698414,-0.05662459135055542,-0.04196327552199364,-0.028584465384483337,0.19229306280612946,0.12654520571231842,-0.02107003517448902,0.16707855463027954,0.14592090249061584,0.16777662932872772,-0.19628404080867767],[-0.08074280619621277,0.1547705978155136,0.15567347407341003,0.1586373746395111,0.1647750288248062,0.18540039658546448,0.1462768018245697,0.09034612774848938,0.04965391010046005,-0.0970195084810257,-0.10027013719081879,-0.18634532392024994,-0.04923861846327782,0.00010656878293957561,0.12130375951528549,-0.1792363077402115,0.07214181125164032,-0.10821816325187683,0.15818937122821808,0.11690474301576614,-0.040040288120508194,-0.12262088805437088,0.15177124738693237,-0.18599863350391388,0.01707751303911209,0.08161479234695435,-0.03620985150337219,0.188594251871109,0.16070367395877838,0.033827044069767,0.009342621080577374,-0.06238315999507904,-0.09542013704776764],[0.1394748091697693,-0.14693818986415863,-0.05977150797843933,0.09044240415096283,0.14244553446769714,-0.17521131038665771,-0.13002793490886688,-0.09645651280879974,0.13127364218235016,-0.061491020023822784,0.1227119117975235,-0.03062462992966175,0.01685534231364727,-0.1039377748966217,-0.08773713558912277,-0.1606699824333191,-0.14678600430488586,0.010654961690306664,0.06550798565149307,-0.13545174896717072,0.16741116344928741,0.13426180183887482,-0.1313779354095459,-0.02398984134197235,-0.0833713486790657,0.16368712484836578,-0.04178944602608681,0.06731067597866058,0.1871841996908188,0.079318568110466,-0.16959728300571442,-0.0035296983551234007,-0.04015035554766655],[-0.056193623691797256,-0.18330535292625427,0.1958950310945511,-0.147138312458992,-0.14610886573791504,-0.1446114480495453,-0.009339596144855022,0.11941125988960266,0.07019505649805069,0.03826317563652992,-0.18138302862644196,0.035096216946840286,-0.026894904673099518,-0.17805929481983185,0.11729729920625687,-0.15766464173793793,-0.08342467993497849,-0.11284197121858597,0.08355163782835007,0.19240720570087433,0.015604056417942047,0.13681352138519287,0.0970427468419075,0.0641200914978981,0.089719757437706,-0.021112948656082153,0.11246132850646973,0.1414046436548233,0.12097357958555222,0.07204288244247437,0.07553371787071228,0.009347944520413876,0.13453640043735504],[0.14543722569942474,0.12898334860801697,-0.1966090202331543,0.08553455024957657,-0.10505291819572449,-0.042997363954782486,0.17422164976596832,0.05535303056240082,-0.10656473785638809,-0.020630650222301483,0.00949734728783369,-0.05548383295536041,-0.00047079811338335276,0.06276390701532364,0.05728475749492645,0.05264018476009369,-0.07534373551607132,-0.146778404712677,0.15143983066082,0.0026682978495955467,0.007370371837168932,-0.04134886711835861,-0.13088594377040863,-0.04098638519644737,-0.15694554150104523,0.1518884003162384,0.045830413699150085,0.04667476937174797,-0.04163706675171852,-0.15820904076099396,0.03947395831346512,-0.18662764132022858,-0.08419867604970932],[-0.009702290408313274,0.06459949165582657,-0.066986583173275,0.10448490083217621,-0.11081463098526001,-0.1024380773305893,-0.11698025465011597,-0.1767055094242096,-0.03810275346040726,-0.13113044202327728,0.12161586433649063,-0.18517756462097168,0.10597038269042969,0.032332055270671844,0.11085183918476105,0.09067963808774948,0.015544460155069828,0.06291249394416809,-0.06922328472137451,-0.08076583594083786,-0.18743343651294708,0.17741134762763977,-0.13705287873744965,0.0906330794095993,-0.14720913767814636,0.11010786890983582,0.006493968423455954,-0.14738471806049347,-0.19136035442352295,0.11392583698034286,-0.17792703211307526,-0.09755585342645645,-0.1940668374300003],[0.03108295612037182,-0.13020449876785278,-0.1325056403875351,-0.1790226399898529,-0.08655498176813126,0.01460737269371748,0.16610437631607056,-0.13621467351913452,-0.03983237221837044,-0.18134373426437378,0.16503098607063293,0.011579246260225773,-0.07709650695323944,0.05019485577940941,0.1929401010274887,-0.14280083775520325,0.157072514295578,-0.19984140992164612,0.047446463257074356,0.0281619094312191,0.06152728572487831,0.06463940441608429,-0.11401604861021042,0.1553402692079544,0.07096483558416367,0.11098253726959229,0.11432994157075882,-0.0122062461450696,-0.17442280054092407,0.19661329686641693,-0.0520210899412632,-0.030794963240623474,-0.040139660239219666],[-0.021617772057652473,-0.012307194992899895,-0.08946164697408676,0.004161488264799118,0.036679428070783615,0.04256146401166916,0.1102614775300026,-0.05206885188817978,0.03011360391974449,-0.07187649607658386,-0.1313108503818512,-0.0919996127486229,0.06822565943002701,-0.10868015885353088,0.08558087795972824,0.07716332376003265,-0.17350491881370544,0.1539049744606018,0.1083679273724556,-0.10261263698339462,0.0030664673540741205,-0.11437966674566269,-0.025358255952596664,0.15266850590705872,-0.04654684290289879,0.013454868458211422,-0.1396111100912094,-0.08248286694288254,-0.16436059772968292,-0.1657750904560089,-0.15099495649337769,-0.1432594209909439,0.19412937760353088],[0.14818599820137024,0.06272967159748077,0.14124292135238647,0.1180872768163681,0.08627112954854965,-0.13473203778266907,0.1702360361814499,0.06196701154112816,0.14656613767147064,0.09483035653829575,0.05809234455227852,0.14056357741355896,0.0019216533983126283,0.11081936955451965,-0.031096354126930237,-0.1849367320537567,-0.12484925240278244,-0.1724628359079361,0.05342009291052818,-0.07146330177783966,0.052034344524145126,-0.11719661951065063,0.13830535113811493,0.19718508422374725,-0.10966500639915466,-0.12211456149816513,0.08887089043855667,0.01931033283472061,0.07048190385103226,0.09253490716218948,-0.017591649666428566,-0.14817248284816742,-0.02594860829412937],[0.1941230148077011,-0.014406685717403889,-0.030912069603800774,-0.03659980371594429,0.03548729792237282,-0.07562452554702759,0.1733044683933258,-0.03524342551827431,0.08410516381263733,0.016612164676189423,0.014652620069682598,-0.13765911757946014,0.0570528544485569,-0.1639586240053177,0.1413571983575821,0.06213809922337532,-0.06295417994260788,0.11052266508340836,0.19131195545196533,0.09149310737848282,0.044533006846904755,-0.16778291761875153,-0.056213147938251495,-0.160089910030365,0.07329510897397995,-0.14786455035209656,-0.1859089583158493,0.17688369750976562,0.18862219154834747,-0.013902164064347744,0.11338318884372711,-0.0311446376144886,0.12838904559612274],[0.005726777948439121,0.06396031379699707,0.04870642349123955,0.031571656465530396,0.013850141316652298,0.13766635954380035,0.1038530170917511,0.12252721190452576,-0.1631506383419037,0.16355915367603302,-0.10870376974344254,-0.041543781757354736,0.0008703171624802053,-0.0026086517609655857,-0.12245097756385803,0.09862308204174042,0.1980249136686325,0.045407336205244064,0.014560171402990818,-0.17158135771751404,-0.07877803593873978,0.09201215952634811,-0.10061479359865189,-0.05202565714716911,0.09385012835264206,-0.15621156990528107,0.028362473472952843,0.08146072179079056,-0.07533672451972961,0.05610310286283493,0.09406925737857819,-0.08983877301216125,0.0895451158285141],[0.17369189858436584,0.08395490050315857,-0.117982417345047,0.11329180002212524,0.060199182480573654,-0.1609772890806198,-0.17519275844097137,-0.04062235727906227,-0.0732569620013237,-0.14061583578586578,-0.18046610057353973,0.12692689895629883,0.018963400274515152,-0.1498243510723114,-0.19895006716251373,0.1723915934562683,0.11925788223743439,0.16751135885715485,-0.02134435996413231,-0.11381470412015915,0.1736173927783966,-0.1507907509803772,0.10598016530275345,0.13505879044532776,0.005443076603114605,0.04658760130405426,-0.0381118543446064,0.07778984308242798,0.012847363948822021,0.14553216099739075,-0.19181197881698608,-0.18900910019874573,-0.16150058805942535],[0.1848083883523941,-0.05783969536423683,-0.1496056318283081,0.05709962174296379,-0.05724998190999031,0.08960729837417603,-0.18422184884548187,-0.15635234117507935,-0.10741028189659119,0.03799484670162201,0.014741333201527596,-0.1372276246547699,0.14444811642169952,-0.003762982552871108,0.12278320640325546,0.015133201144635677,-0.049649469554424286,0.14421263337135315,0.1899099498987198,-0.01483429316431284,-0.13618695735931396,-0.165100559592247,0.004930627066642046,0.17526084184646606,0.1956012099981308,-0.06511786580085754,0.01654549315571785,0.1702018827199936,-0.15174329280853271,0.02796160615980625,0.013413955457508564,0.1603136956691742,-0.09701594710350037],[0.05489363893866539,-0.1400589644908905,-0.05056782439351082,0.16403162479400635,0.06839776784181595,-0.14806421101093292,-0.013706827536225319,-0.1363733559846878,0.08260612189769745,0.06450949609279633,0.17591071128845215,-0.16762255132198334,-0.16191840171813965,-0.08570440858602524,0.044040337204933167,0.050693199038505554,0.12367048114538193,0.1972397118806839,-0.14718975126743317,0.06496817618608475,0.005952646490186453,0.15129722654819489,-0.09693540632724762,0.04745503515005112,-0.16886864602565765,-0.10756894201040268,0.18912796676158905,0.11263031512498856,0.02462977170944214,-0.07486071437597275,-0.00005924102879362181,0.07667220383882523,0.05916111171245575],[-0.1447027623653412,0.10580345243215561,-0.04973404482007027,-0.0036947790067642927,0.03170068562030792,-0.19857488572597504,-0.06748811155557632,-0.05644497647881508,0.02949393354356289,-0.10796613991260529,-0.027484523132443428,0.14141595363616943,0.11483623832464218,0.025396324694156647,-0.04882906749844551,0.019327424466609955,-0.010425683110952377,0.07992955297231674,-0.10307493060827255,0.04088941216468811,-0.18810540437698364,-0.029155973345041275,0.06445468962192535,-0.15851116180419922,0.09764418751001358,-0.14324934780597687,0.12865754961967468,-0.0354437530040741,0.018533239141106606,0.07034274935722351,0.19981050491333008,-0.15028007328510284,-0.15205812454223633],[0.043416578322649,0.15310341119766235,0.029831072315573692,0.020281076431274414,-0.05224026367068291,-0.06215226277709007,-0.02521059848368168,0.007092032581567764,0.16394706070423126,-0.1009175181388855,0.11724353581666946,0.05605460703372955,0.11170252412557602,-0.17119209468364716,0.1884942650794983,0.09010974317789078,0.1427927315235138,0.0323854424059391,0.07077478617429733,-0.1299770325422287,-0.1357073038816452,0.04660103842616081,0.09896998852491379,0.18453487753868103,-0.19806362688541412,0.18044614791870117,-0.10686241090297699,-0.017120087519288063,-0.11291434615850449,-0.13034918904304504,-0.06368941068649292,0.1894075572490692,0.020314842462539673],[-0.05380791798233986,0.028865588828921318,-0.19088870286941528,0.05875149741768837,-0.10743753612041473,0.0375119224190712,0.09806490689516068,0.0335380882024765,-0.08982866257429123,0.04673387110233307,0.16818667948246002,-0.14990271627902985,-0.06852556765079498,-0.10369852930307388,0.10671395063400269,-0.19504371285438538,-0.03313495218753815,-0.05373309925198555,-0.07933318614959717,-0.17128434777259827,0.1340123414993286,-0.055987853556871414,-0.05864411219954491,-0.011996150016784668,-0.13188648223876953,-0.10759308934211731,-0.013014678843319416,0.05108560994267464,0.14614425599575043,0.1749819964170456,0.08314082771539688,0.05492544174194336,-0.1729913204908371],[-0.1865762323141098,0.08986972272396088,-0.18403007090091705,0.07002249360084534,0.017857417464256287,-0.11059431731700897,-0.16371728479862213,-0.00615638168528676,-0.15401136875152588,0.09471496939659119,-0.15180359780788422,-0.06230597570538521,0.0845649242401123,0.08037397265434265,0.06152523308992386,-0.13181036710739136,0.10150477290153503,-0.195648193359375,-0.1076577678322792,0.06971505284309387,0.1851801574230194,0.17413224279880524,0.15792010724544525,0.01013858150690794,-0.1108332946896553,0.117118239402771,-0.0025186752900481224,-0.05113363638520241,-0.005196077283471823,-0.11380285769701004,0.1545034795999527,-0.17760911583900452,-0.012053223326802254],[0.006042049266397953,-0.07061812281608582,0.07456481456756592,0.12359419465065002,-0.09702486544847488,0.13040591776371002,-0.10276085138320923,-0.16583538055419922,-0.18228858709335327,-0.19246463477611542,-0.07253502309322357,0.17187370359897614,0.16503259539604187,0.19032779335975647,-0.17717589437961578,0.021681951358914375,0.19788125157356262,0.016892623156309128,-0.16623428463935852,-0.08071671426296234,-0.020827332511544228,-0.1261681467294693,-0.1558874547481537,0.12216649204492569,0.008033529855310917,-0.06891817599534988,-0.0032759823370724916,-0.11425255984067917,0.09326815605163574,0.015145446173846722,0.10576276481151581,0.19614246487617493,-0.17507590353488922],[-0.0004644129949156195,0.11514457315206528,-0.02747364714741707,0.010137612000107765,0.12088952958583832,-0.10574028640985489,-0.1598789244890213,0.07770927250385284,0.05894508585333824,0.19595398008823395,0.14495718479156494,0.1854216456413269,-0.05477931722998619,0.021889932453632355,-0.052246734499931335,-0.0870673879981041,-0.10169485956430435,0.18399541079998016,0.04812866821885109,-0.12648671865463257,-0.19264446198940277,-0.14914152026176453,-0.05771172046661377,-0.15268491208553314,-0.06168493628501892,-0.1945568025112152,0.10885804146528244,-0.19356104731559753,-0.0010471465066075325,-0.07981704920530319,0.19897179305553436,0.17046038806438446,-0.07007354497909546],[0.1408667266368866,-0.009158661589026451,-0.19996468722820282,-0.14985401928424835,-0.03818553686141968,0.08204259723424911,0.12701697647571564,0.04892148822546005,-0.19998644292354584,0.10800015181303024,0.024973835796117783,0.061240192502737045,0.13586387038230896,0.08414997160434723,0.1857411116361618,0.07664880156517029,0.039589159190654755,0.12984338402748108,0.16201132535934448,0.011378846131265163,0.0762251764535904,-0.0631917268037796,0.15125532448291779,0.036120373755693436,-0.0022592050954699516,0.18786053359508514,-0.19825561344623566,-0.03421647101640701,-0.01692318357527256,0.19916313886642456,-0.1641518771648407,0.177592471241951,-0.015567561611533165],[-0.07306524366140366,-0.10725979506969452,0.19125907123088837,-0.025010982528328896,-0.16671951115131378,0.012919614091515541,0.0659099668264389,0.02309335023164749,0.08567340672016144,-0.09482429176568985,-0.11063376069068909,0.056517548859119415,-0.18862201273441315,0.06062011793255806,0.010483224876224995,-0.015534194186329842,-0.0795183777809143,-0.16784857213497162,-0.11518564820289612,0.15638718008995056,0.053588125854730606,-0.030268756672739983,0.18860073387622833,0.07656841725111008,-0.07547392696142197,-0.1983984410762787,-0.013491238467395306,-0.13367532193660736,0.1501690298318863,0.19744077324867249,-0.11134814471006393,0.1712179332971573,-0.13288168609142303],[-0.1894664466381073,-0.06503670662641525,0.1762518733739853,0.13677947223186493,0.03340495750308037,-0.026900330558419228,-0.044665977358818054,0.04873722046613693,-0.18801350891590118,-0.019051603972911835,0.04695381596684456,0.10752492398023605,0.024458305910229683,-0.031984180212020874,0.1635582447052002,-0.08918410539627075,-0.020844561979174614,-0.13504065573215485,-0.03884404897689819,-0.15250219404697418,0.03328518569469452,0.14958783984184265,0.18404024839401245,0.08254602551460266,-0.19759854674339294,0.15727029740810394,-0.004009313881397247,0.19110338389873505,0.04757266491651535,0.006361716892570257,-0.007730895187705755,0.07819296419620514,-0.04849015921354294],[-0.06066672503948212,-0.08470943570137024,0.022579984739422798,0.10116815567016602,0.12870419025421143,0.0742453932762146,-0.03186421096324921,-0.11771640926599503,-0.120671346783638,-0.05689156800508499,0.12570098042488098,-0.045607760548591614,-0.09687614440917969,-0.006244498770684004,-0.19233430922031403,0.09262150526046753,-0.18358813226222992,0.19456149637699127,0.12620329856872559,0.05636017397046089,-0.12520073354244232,-0.14067302644252777,-0.13182848691940308,-0.04245598614215851,-0.04608429968357086,-0.07776721566915512,-0.19794492423534393,0.012229337356984615,0.17047779262065887,-0.08333558589220047,-0.04344721883535385,0.193362757563591,-0.10565988719463348],[-0.1162634864449501,0.040392424911260605,0.16399122774600983,0.1965738981962204,-0.0953884944319725,0.05620336905121803,0.03694608062505722,-0.12679553031921387,-0.19099031388759613,0.04582618176937103,-0.10593554377555847,0.13112270832061768,0.05918089300394058,-0.1764373481273651,-0.020803984254598618,0.1486632227897644,0.14313146471977234,-0.03911617398262024,0.08848486095666885,-0.006360500119626522,0.15377135574817657,-0.034632399678230286,-0.1891818791627884,0.032689664512872696,-0.18865419924259186,-0.016995863988995552,-0.060737889260053635,-0.0935383141040802,-0.09464338421821594,-0.046361856162548065,0.1947309374809265,-0.06206217780709267,-0.12364670634269714],[-0.026972627267241478,0.03701089695096016,-0.021752044558525085,0.12552529573440552,0.017978962510824203,-0.09542517364025116,-0.1610240489244461,-0.015383092686533928,-0.04384717717766762,-0.19277748465538025,-0.18714593350887299,-0.19191206991672516,-0.11830557882785797,0.13344734907150269,-0.15705060958862305,0.12775489687919617,0.09574024379253387,-0.030396413058042526,-0.09553977847099304,-0.013586027547717094,-0.1381324678659439,-0.07420887798070908,-0.17756369709968567,0.07694806903600693,0.0842747688293457,-0.1753488928079605,-0.09032750129699707,-0.11175649613142014,0.14722655713558197,0.17286796867847443,0.06711233407258987,0.03981680050492287,-0.19924019277095795],[0.18346278369426727,-0.10156136751174927,0.12374315410852432,-0.16813135147094727,0.10540538281202316,-0.18748068809509277,-0.007521024439483881,-0.05616816505789757,0.1072087213397026,-0.02631993405520916,0.17310839891433716,0.07755061239004135,0.014595739543437958,-0.15013647079467773,-0.07261554151773453,0.011807955801486969,0.09795791655778885,-0.15535753965377808,-0.06016068533062935,0.18695348501205444,-0.06499967724084854,0.05063014104962349,-0.19115686416625977,-0.04998985305428505,-0.00827373843640089,0.08722866326570511,-0.0884207934141159,-0.12770028412342072,-0.1902475208044052,-0.02558949962258339,-0.012288566678762436,0.13108280301094055,0.01993013173341751],[-0.09298118948936462,-0.0229609627276659,-0.00043605369864962995,0.1569260060787201,0.014508537016808987,-0.08400658518075943,-0.062451284378767014,-0.1915840059518814,0.0700126588344574,0.139443039894104,-0.05463189259171486,0.09345608949661255,0.0792648047208786,0.19963479042053223,-0.14002688229084015,0.06225726753473282,0.03546128794550896,0.1450091302394867,0.014625919051468372,-0.07766412943601608,-0.10687017440795898,-0.04569711163640022,-0.15655292570590973,0.053670257329940796,-0.14971353113651276,0.12644940614700317,-0.1712445318698883,0.14574633538722992,-0.153749480843544,-0.029862895607948303,0.06751951575279236,-0.10959062725305557,-0.055300865322351456],[0.05341009050607681,0.17395435273647308,-0.07907614856958389,0.09340611100196838,-0.07439447939395905,-0.027752278372645378,-0.1830524355173111,0.18664062023162842,-0.08172699064016342,-0.0561094805598259,-0.06099718436598778,-0.1439397782087326,-0.019524477422237396,0.13506023585796356,-0.1982567012310028,-0.09127838164567947,-0.023837080225348473,0.003393684048205614,-0.1555599719285965,-0.08085714280605316,-0.1009121686220169,0.006089398637413979,-0.11586806923151016,-0.13804809749126434,-0.1871999204158783,0.14943112432956696,-0.14820627868175507,0.15516257286071777,0.127407506108284,-0.18636764585971832,-0.14963212609291077,-0.16927160322666168,0.014536034315824509],[0.15769603848457336,0.09615001082420349,0.12363055348396301,-0.1837308704853058,0.042023200541734695,-0.04665665701031685,-0.18283338844776154,-0.04492177814245224,-0.06848319619894028,0.08376691490411758,-0.010033738799393177,0.18041130900382996,-0.16101329028606415,-0.11133061349391937,0.16868895292282104,0.04002438858151436,0.15431740880012512,0.14240725338459015,0.12476091086864471,-0.029519248753786087,0.04644247144460678,0.11293888837099075,0.07579802721738815,-0.18220984935760498,0.19849525392055511,0.04449598491191864,0.03559517487883568,0.19131870567798615,-0.18448670208454132,0.10466371476650238,0.17630745470523834,0.08497431129217148,0.16475751996040344],[-0.0037049229722470045,-0.10731860995292664,0.040248434990644455,0.005715328734368086,-0.11129321157932281,0.06850481033325195,-0.07109738886356354,0.08629261702299118,-0.1797654628753662,0.03558283671736717,-0.12835127115249634,0.004749833140522242,0.00007172503683250397,-0.18555597960948944,-0.1350945681333542,0.08492515236139297,0.00632586982101202,-0.18181346356868744,-0.02230706252157688,0.07919272035360336,-0.13741035759449005,0.11771398782730103,-0.19184595346450806,-0.14452897012233734,0.06925976276397705,-0.13656394183635712,0.1081588864326477,0.025609659031033516,0.021629992872476578,-0.08284466713666916,-0.009819472208619118,0.11968126147985458,-0.034904152154922485],[0.03784562274813652,-0.08278314024209976,-0.03483864292502403,0.0069523644633591175,-0.15148325264453888,-0.14211012423038483,0.0478082001209259,-0.0645928904414177,0.1999739706516266,0.0503329336643219,0.04002059996128082,-0.04065778851509094,-0.0314156711101532,-0.04440338909626007,-0.03773830085992813,0.01730201579630375,0.11320587247610092,0.03504117950797081,-0.18026131391525269,0.0699462965130806,0.16656562685966492,0.12888267636299133,0.17734044790267944,-0.002109462395310402,-0.08036591112613678,-0.01707552559673786,-0.1217113509774208,-0.08765864372253418,-0.030296655371785164,0.015710193663835526,0.1989976465702057,-0.12733358144760132,0.05801985040307045],[0.13967663049697876,-0.025230975821614265,0.0745491087436676,-0.15604658424854279,-0.08142147213220596,0.023429768159985542,-0.1493973731994629,0.12128102034330368,0.09084460139274597,-0.03372139483690262,0.14043378829956055,-0.005555304698646069,-0.18353821337223053,0.19947193562984467,-0.17610201239585876,0.16741390526294708,0.014976712875068188,-0.12091511487960815,-0.016441641375422478,0.17906421422958374,0.015081503428518772,-0.04711713269352913,0.018493765965104103,0.08969718217849731,-0.08366348594427109,0.18805913627147675,-0.05163155123591423,-0.15122438967227936,-0.07063808292150497,-0.11282751709222794,-0.08705028891563416,-0.14672119915485382,-0.027683066204190254],[0.02264951542019844,0.033344004303216934,0.17799438536167145,0.10220468789339066,-0.08702375739812851,-0.18027031421661377,0.15724802017211914,0.0808032751083374,0.12490957230329514,-0.0335206463932991,0.019216783344745636,-0.11422320455312729,0.007102739531546831,0.13207632303237915,-0.17987564206123352,0.06813585758209229,-0.11167861521244049,0.08990898728370667,-0.08688651025295258,-0.1264878809452057,-0.09838274866342545,-0.05416521057486534,0.17458362877368927,0.05367126688361168,0.06983017176389694,-0.05096219480037689,0.037130992859601974,0.020078815519809723,-0.1069706380367279,0.048122987151145935,0.11870905756950378,0.0352771170437336,0.12078078091144562],[0.07205099612474442,0.06399253755807877,-0.020534541457891464,-0.19874721765518188,0.04360127076506615,0.19940988719463348,0.01483053807169199,0.16358183324337006,-0.17949894070625305,0.12061324715614319,0.08164102584123611,-0.0077064987272024155,0.196743443608284,0.13391587138175964,-0.08571327477693558,-0.08782897889614105,-0.1853526085615158,0.029444687068462372,-0.022686200216412544,-0.10872498154640198,0.002881946275010705,-0.07482176274061203,-0.189987912774086,-0.19873927533626556,0.03038962371647358,0.16526420414447784,-0.1319538950920105,0.17500272393226624,-0.01830393448472023,0.09443656355142593,0.008672967553138733,-0.01514800451695919,0.1648564338684082],[-0.144411101937294,-0.0054421559907495975,0.03346957266330719,-0.014110964722931385,0.17575488984584808,-0.06363724917173386,0.018374450504779816,0.13544821739196777,-0.05337495729327202,-0.19491155445575714,-0.19694936275482178,0.06437099725008011,-0.1775047481060028,-0.04425269365310669,-0.13469991087913513,-0.05096592381596565,-0.10771340131759644,0.08442744612693787,0.14090277254581451,-0.1874416172504425,0.12390004098415375,0.06391055136919022,-0.19245857000350952,0.06965632736682892,-0.13566085696220398,-0.16682292520999908,0.08864710479974747,0.1900634914636612,-0.017376365140080452,-0.05860772728919983,0.11083297431468964,0.1916683316230774,-0.013229165226221085],[-0.14436207711696625,0.09085926413536072,-0.05979634448885918,-0.14087826013565063,0.18892896175384521,-0.15462161600589752,0.15515470504760742,-0.09721304476261139,0.06716661900281906,0.10737858712673187,0.0030258626211434603,0.06652335822582245,0.08678486943244934,0.09726689755916595,-0.03927839174866676,-0.02907801978290081,0.10727385431528091,-0.11049544811248779,0.07105514407157898,-0.1966427117586136,-0.10200974345207214,-0.09181125462055206,-0.04830121621489525,-0.10461496561765671,0.11053050309419632,0.10332542657852173,-0.1281890720129013,0.17938834428787231,0.01818482019007206,0.09152916818857193,0.12144508212804794,0.1960008442401886,0.009891686961054802],[-0.1406838297843933,-0.13012950122356415,0.10409688204526901,-0.009514065459370613,-0.18788248300552368,0.09137071669101715,-0.042006880044937134,0.09359747916460037,0.16627326607704163,-0.1691294014453888,-0.07138863950967789,0.1760198026895523,-0.0155812818557024,-0.09675165265798569,-0.1314680576324463,0.06064347177743912,-0.029025321826338768,-0.06276942789554596,-0.14972032606601715,0.16058538854122162,-0.06595942378044128,0.05333152040839195,0.010582992807030678,-0.02470434457063675,0.11790639162063599,-0.007309067063033581,0.18857532739639282,-0.16876685619354248,-0.16279807686805725,-0.08252476155757904,0.18080738186836243,0.14070993661880493,0.05363056808710098],[0.1866399049758911,0.03226717561483383,-0.16972596943378448,0.08975545316934586,-0.19641749560832977,0.05664573237299919,0.043669044971466064,-0.13950523734092712,-0.1437237411737442,0.13639520108699799,0.10184808820486069,-0.12480119615793228,-0.16055011749267578,0.019222337752580643,-0.13636037707328796,-0.008955485187470913,0.03663519769906998,0.058499112725257874,0.05507958307862282,-0.07687648385763168,0.15535330772399902,0.1164102777838707,0.08896062523126602,0.011187980882823467,-0.004722392186522484,-0.10361276566982269,0.03929556906223297,0.1376175582408905,-0.027872363105416298,0.041184861212968826,-0.057029835879802704,-0.06996457278728485,0.00389206619001925],[0.030233873054385185,-0.13923132419586182,-0.046145305037498474,0.06788291782140732,0.0060569425113499165,0.07642767578363419,-0.1194579154253006,-0.021439125761389732,0.070765919983387,0.013910738751292229,-0.010862237773835659,-0.025482291355729103,0.07708480954170227,0.17119894921779633,-0.0951540395617485,0.17918655276298523,-0.16113659739494324,-0.030806278809905052,0.19830524921417236,0.13287387788295746,-0.09332263469696045,0.18566171824932098,0.06422019749879837,0.15885676443576813,-0.056671708822250366,-0.1434822678565979,0.004546880256384611,0.16007396578788757,-0.06052359566092491,0.0984649658203125,0.07017189264297485,0.031014561653137207,-0.1768927425146103],[-0.13875457644462585,0.17971576750278473,-0.15380392968654633,0.013074083253741264,0.07002564519643784,-0.17502698302268982,0.10000507533550262,-0.024711906909942627,0.07587089389562607,0.12244220077991486,0.06507376581430435,0.1700659990310669,-0.16707123816013336,-0.058951299637556076,0.14750750362873077,-0.013840964064002037,-0.0831814855337143,0.160299152135849,-0.14835502207279205,-0.026473157107830048,-0.08620695769786835,-0.04369014501571655,0.11127924174070358,-0.06253218650817871,0.029609203338623047,0.09206988662481308,-0.07733729481697083,-0.1129155308008194,0.07162923365831375,-0.13572460412979126,-0.12805964052677155,0.17396187782287598,-0.08925855159759521],[-0.16417017579078674,-0.07789239287376404,0.10752065479755402,0.09494272619485855,-0.132932648062706,-0.15253306925296783,-0.04615515097975731,0.004036998376250267,-0.05174652487039566,0.0256141796708107,0.18228541314601898,0.1507318764925003,0.18630728125572205,0.02726433426141739,-0.17241404950618744,0.09728990495204926,-0.13465607166290283,-0.04133734852075577,0.08765091747045517,-0.03722769394516945,-0.03756500780582428,-0.031373530626297,0.13921579718589783,-0.09411659836769104,0.07170043885707855,-0.006554814055562019,0.14119397103786469,0.0528196319937706,0.10218566656112671,0.1050196960568428,-0.03403828665614128,0.16620232164859772,0.19976432621479034],[-0.06813868135213852,-0.07711334526538849,0.0327199250459671,0.18611612915992737,0.023154636844992638,-0.03294377028942108,0.01683494634926319,0.01760217733681202,0.007161641959100962,0.1899755448102951,-0.11711739003658295,0.12678128480911255,0.07085615396499634,-0.021823689341545105,0.148634672164917,-0.14846456050872803,-0.18266849219799042,-0.07223532348871231,-0.01793917827308178,0.183350071310997,-0.16070878505706787,0.14795543253421783,0.00820461567491293,-0.04631255939602852,0.014809581451117992,0.0638214722275734,-0.09280417114496231,0.17966590821743011,-0.1383659988641739,0.1934298723936081,-0.06323593109846115,-0.10281741619110107,0.09521650522947311],[0.19937559962272644,0.06184229254722595,0.02765873819589615,-0.07214491814374924,0.04035855829715729,-0.00927597563713789,-0.04637768119573593,-0.031543757766485214,0.009102942422032356,-0.17921137809753418,-0.10362841188907623,-0.11781654506921768,0.10557755082845688,0.08936859667301178,0.025285668671131134,0.1715920865535736,0.009752558544278145,0.08166079223155975,0.06538531929254532,-0.06293319165706635,-0.05003182217478752,0.14789657294750214,-0.02003479190170765,0.17399445176124573,0.1285300850868225,-0.08249523490667343,0.10344363749027252,0.03263130784034729,0.000414745241869241,-0.08761118352413177,-0.17419244349002838,0.16115258634090424,-0.0006965383654460311],[-0.026807500049471855,-0.10662402212619781,-0.15989950299263,0.10948390513658524,0.024042000994086266,-0.02013300731778145,-0.16072693467140198,-0.02638421021401882,-0.1305629014968872,0.16248100996017456,0.06583134829998016,0.0216636061668396,-0.007853681221604347,-0.1968080997467041,-0.13036158680915833,-0.1343977004289627,-0.15052852034568787,0.1669943779706955,0.13810144364833832,0.06061933562159538,-0.18481580913066864,-0.17687790095806122,0.07859901338815689,0.0019905681256204844,-0.046490415930747986,0.14373455941677094,-0.1494373083114624,0.1418730765581131,-0.15490861237049103,-0.0999065637588501,-0.1810639649629593,0.17422163486480713,-0.005028981249779463],[-0.16982515156269073,0.1067870482802391,0.029427731409668922,0.14813248813152313,0.06671237200498581,0.05597981810569763,-0.17955002188682556,0.0737057700753212,0.06813549995422363,0.056919701397418976,0.12424067407846451,-0.11330531537532806,0.032074566930532455,0.1248253583908081,0.1703217327594757,-0.016508134081959724,0.1515897959470749,0.025064850226044655,0.1255815327167511,0.07069554179906845,0.13615268468856812,0.1778886616230011,-0.046144139021635056,0.17136085033416748,0.17484557628631592,-0.0005182985332794487,0.1364280879497528,0.05555286630988121,-0.16450360417366028,-0.017936384305357933,-0.1765170395374298,0.11459263414144516,-0.10150094330310822],[0.18458318710327148,0.0665668174624443,0.14531752467155457,0.02359008602797985,0.11766574531793594,-0.07899636775255203,0.11099959909915924,-0.11440874636173248,-0.17717652022838593,-0.00809863768517971,-0.06135625019669533,0.19880370795726776,-0.047770652920007706,-0.04079728201031685,-0.034480027854442596,-0.1671057641506195,-0.1906052827835083,0.007547931279987097,0.07214027643203735,-0.08558519184589386,-0.07021566480398178,0.12635134160518646,0.1288723200559616,-0.08556803315877914,0.14431191980838776,-0.0016410223906859756,0.10427221655845642,0.12290823459625244,0.10641087591648102,0.01565539836883545,-0.021399058401584625,0.07458197325468063,-0.16712404787540436],[0.04701467230916023,-0.04500327631831169,-0.06771031767129898,-0.05579107254743576,-0.022370649501681328,0.1463332176208496,0.0681043192744255,0.10382388532161713,-0.08032311499118805,-0.10010162740945816,0.05806535854935646,-0.17294980585575104,0.10022585093975067,-0.09660036116838455,-0.0835832729935646,0.175984188914299,-0.027140147984027863,-0.1454640030860901,0.1538117229938507,0.11722331494092941,0.0991562157869339,-0.10786555707454681,0.06060543656349182,0.01090350653976202,-0.005005771294236183,0.18229584395885468,0.19816233217716217,0.13114571571350098,0.13962115347385406,-0.14712771773338318,-0.14562879502773285,0.019978836178779602,0.18205587565898895],[-0.12689794600009918,-0.05909845978021622,0.142454132437706,-0.18649674952030182,-0.015013902448117733,-0.14394652843475342,-0.10160377621650696,0.027727201581001282,0.08677425980567932,0.08514216542243958,0.017243362963199615,-0.0728355199098587,-0.003171460470184684,0.07868827134370804,0.0826733335852623,-0.1427287459373474,0.06749077886343002,-0.1991984099149704,0.007059440016746521,0.03380193933844566,-0.19872283935546875,-0.10595513880252838,-0.1707654893398285,-0.11104966700077057,-0.08150102943181992,0.007398365531116724,-0.15724030137062073,0.1931530237197876,-0.06940952688455582,-0.0029026109259575605,-0.14458803832530975,0.19304126501083374,-0.033049408346414566],[-0.0014616046100854874,0.06805542856454849,-0.17888961732387543,0.018669376149773598,-0.07866283506155014,-0.030833164229989052,0.11668042838573456,-0.05737271532416344,0.1527523696422577,-0.035755738615989685,0.11930228769779205,-0.06378856301307678,-0.006750637199729681,-0.09853175282478333,0.07213275879621506,-0.1786668300628662,0.17225390672683716,0.11359425634145737,0.1737082451581955,0.11043567210435867,0.1507006585597992,0.09788215905427933,0.1841316521167755,-0.08044509589672089,-0.18993240594863892,-0.07936815917491913,-0.09038090705871582,0.15086622536182404,-0.16726146638393402,-0.0614270381629467,-0.0643499344587326,0.02179086208343506,-0.06354286521673203],[-0.16115699708461761,-0.17608502507209778,0.07438687235116959,0.1729871928691864,-0.16277660429477692,0.16231828927993774,0.023453783243894577,0.16614234447479248,-0.056987177580595016,-0.08130717277526855,-0.16367463767528534,0.12122829258441925,0.07691147178411484,0.0742863118648529,-0.12954334914684296,0.007246209308505058,-0.15680895745754242,-0.08924242109060287,0.11236593872308731,-0.029188111424446106,-0.0745694637298584,0.08728329837322235,0.032005347311496735,0.07722428441047668,-0.09138511121273041,0.06965266913175583,-0.029036641120910645,0.12884913384914398,-0.07836037129163742,0.05432349443435669,0.0435466505587101,0.012397944927215576,0.14250734448432922],[0.1344192773103714,-0.1049954816699028,-0.11960645765066147,-0.09867142140865326,-0.09138850122690201,-0.044230155646800995,0.07318227738142014,-0.19439631700515747,0.06412763893604279,-0.09232931584119797,-0.08824683725833893,0.16537947952747345,-0.1284320056438446,-0.12511630356311798,-0.09920634329319,-0.18935325741767883,-0.0647248700261116,0.18510015308856964,0.19916975498199463,0.07187660783529282,-0.11389964073896408,-0.03285842016339302,0.04419945552945137,-0.009275410324335098,-0.18577241897583008,-0.0708349198102951,-0.01734871044754982,0.07922986149787903,0.14522391557693481,0.08823870867490768,-0.015389629639685154,0.10428839176893234,0.16885606944561005],[-0.03397568315267563,-0.058419376611709595,-0.021263206377625465,-0.01867411844432354,0.10828761011362076,-0.04201884940266609,-0.03221083804965019,-0.027225762605667114,-0.14198249578475952,0.03819703310728073,0.01645280048251152,0.06919721513986588,0.1951282024383545,0.02633565664291382,0.18434889614582062,-0.1470745950937271,-0.1737191379070282,-0.006335387472063303,0.18634188175201416,0.13063789904117584,-0.03979090228676796,-0.07665462791919708,-0.02531202882528305,-0.1137852594256401,-0.10984356701374054,-0.03135688975453377,-0.10438783466815948,0.08874158561229706,-0.0772324651479721,-0.10777970403432846,0.04431137442588806,-0.18514610826969147,0.14184142649173737],[0.12207628041505814,-0.16095289587974548,0.1439538449048996,0.10183744877576828,-0.19106559455394745,-0.08251726627349854,0.04968513548374176,0.15791188180446625,0.14126065373420715,0.033318743109703064,-0.10721595585346222,-0.1511288732290268,0.10105585306882858,0.08808490633964539,-0.056990474462509155,0.03988926485180855,0.02874118462204933,0.19604063034057617,-0.026200151070952415,-0.09607325494289398,-0.08615601807832718,0.09395202249288559,-0.1410607397556305,0.17206956446170807,-0.0022770066279917955,-0.1729160100221634,-0.006970974151045084,0.01658596470952034,-0.0842847004532814,-0.02996484376490116,0.11634006351232529,0.06037907674908638,-0.11336105316877365],[-0.14303947985172272,-0.025922276079654694,-0.17585709691047668,0.06270278990268707,0.08756857365369797,-0.19220761954784393,0.19583679735660553,-0.1045788899064064,0.02966100350022316,0.11720731109380722,-0.010366194881498814,0.03621850535273552,0.09290744364261627,-0.08609593659639359,-0.06032044067978859,-0.1331034004688263,0.171326145529747,-0.09517309069633484,-0.19612596929073334,-0.1964714378118515,0.09929045289754868,0.14546996355056763,0.15831682085990906,0.009729038923978806,0.15601488947868347,-0.12335165590047836,-0.12832026183605194,-0.01170008722692728,-0.10518377274274826,-0.08739742636680603,0.06018361076712608,-0.05181065946817398,0.15009112656116486],[-0.005225717555731535,-0.142210453748703,-0.022646896541118622,-0.14914830029010773,0.09430722892284393,-0.1573406457901001,-0.10533272475004196,-0.19943875074386597,0.12962126731872559,-0.07724744826555252,-0.06345749646425247,-0.11863765120506287,-0.020844409242272377,-0.03246526047587395,0.1402263045310974,0.1469910889863968,0.09439657628536224,0.021126409992575645,-0.029996568337082863,-0.09525391459465027,-0.1558060497045517,-0.1498459130525589,0.06871221214532852,0.1537531167268753,0.022984780371189117,-0.15078584849834442,-0.023466402664780617,0.03568291664123535,-0.14838358759880066,0.03911791741847992,-0.17565160989761353,-0.10699822008609772,-0.15556935966014862],[0.0635952278971672,0.05670333281159401,0.1999787837266922,0.07862958312034607,0.1560676395893097,-0.05294136703014374,0.08305897563695908,0.15659856796264648,-0.19511444866657257,-0.07585050165653229,-0.09667029231786728,-0.08512485772371292,-0.1726689338684082,-0.02198866941034794,0.17593152821063995,-0.005407064687460661,0.003085206262767315,-0.10114933550357819,0.029687317088246346,-0.15711566805839539,-0.02188129536807537,-0.10143540799617767,0.15362118184566498,0.13118110597133636,0.10715532302856445,-0.09053614735603333,0.0542304590344429,0.17652450501918793,0.07422914355993271,0.10618961602449417,-0.012862104922533035,-0.031068189069628716,0.018439367413520813],[-0.06396323442459106,-0.15546642243862152,0.11098301410675049,0.006983393337577581,-0.13260295987129211,0.017602020874619484,0.05044155195355415,-0.03620065376162529,-0.18166948854923248,0.15012237429618835,-0.1565740555524826,-0.0308423712849617,-0.13825805485248566,0.07690143585205078,0.04916243627667427,0.12181605398654938,-0.17581108212471008,0.079196996986866,-0.17100296914577484,-0.0671086311340332,0.04410504549741745,-0.03789283335208893,0.12162300199270248,-0.03214036300778389,-0.000603873806539923,-0.0653151422739029,0.11673016101121902,-0.11986605077981949,0.1454331874847412,-0.14595414698123932,0.04175259545445442,-0.17944256961345673,0.07866092771291733],[-0.07641974091529846,0.1627880185842514,-0.14493834972381592,-0.19411641359329224,0.10023688524961472,0.06706807017326355,-0.17463156580924988,-0.056191783398389816,0.1647331565618515,-0.1204240545630455,-0.17499405145645142,0.035352788865566254,-0.015713408589363098,-0.14904910326004028,0.1861363649368286,0.07151772826910019,-0.08556056022644043,0.11247935891151428,-0.18047749996185303,0.13709436357021332,-0.04962560161948204,0.15184347331523895,-0.1988011598587036,0.0694439560174942,0.02184043638408184,0.01589072495698929,-0.03149264305830002,0.008416862227022648,-0.005967160686850548,-0.040787287056446075,0.19268636405467987,-0.0659453496336937,0.1846468597650528],[0.026260577142238617,0.190130352973938,-0.16122153401374817,-0.0013412657426670194,-0.03142699971795082,-0.1099642664194107,-0.03907574713230133,0.08045568317174911,0.12611131370067596,0.13877013325691223,-0.15034480392932892,-0.1222972422838211,-0.041462693363428116,0.17728307843208313,0.06771422922611237,0.03348755091428757,0.1714542806148529,-0.14267347753047943,0.07674071937799454,-0.00006022856541676447,-0.12879186868667603,-0.1943887621164322,-0.014139444567263126,-0.010627792216837406,0.00009730156307341531,-0.012869474478065968,-0.12315355241298676,0.12523972988128662,0.12833824753761292,0.12539909780025482,-0.030385760590434074,0.1350206583738327,0.0323028638958931],[-0.1846410185098648,0.089317187666893,-0.14905545115470886,0.05637260526418686,0.18454405665397644,-0.14382274448871613,0.03188510984182358,-0.005377350375056267,0.13697034120559692,-0.06587591022253036,0.018323518335819244,0.06463015824556351,0.12844769656658173,0.03976568579673767,0.012310590595006943,-0.13748206198215485,0.029324542731046677,-0.15910784900188446,-0.16139309108257294,-0.1613629311323166,-0.0596642792224884,-0.10890229046344757,0.009226221591234207,0.09168815612792969,0.12284474074840546,-0.024473093450069427,0.1584574431180954,0.1566648632287979,0.06940992921590805,-0.09626083076000214,0.011441918089985847,0.05456015467643738,-0.07544777542352676],[-0.19681869447231293,-0.14145605266094208,-0.18199127912521362,0.05757281929254532,-0.18096762895584106,-0.047346603125333786,0.0053523508831858635,0.0386279821395874,-0.12266072630882263,0.0702081248164177,-0.09937863796949387,0.15806284546852112,0.17966343462467194,-0.10521034151315689,0.05412599816918373,-0.08675017952919006,0.18842187523841858,0.17805472016334534,-0.17602142691612244,0.08949519693851471,0.11537916958332062,0.07276424765586853,-0.18500034511089325,-0.06765122711658478,-0.01946062222123146,-0.07719176262617111,-0.0514945313334465,-0.026370598003268242,-0.09850399941205978,-0.11140718311071396,-0.1788676530122757,-0.0928630605340004,-0.15802906453609467],[-0.022015277296304703,0.13933618366718292,-0.1878899782896042,-0.03270537033677101,-0.026626920327544212,-0.1586681753396988,0.0036179048474878073,-0.16736853122711182,0.013444095849990845,-0.02804751507937908,0.16141308844089508,0.15647514164447784,0.005755925551056862,0.029571818187832832,-0.07633422315120697,0.144932359457016,-0.04659467190504074,-0.057305388152599335,0.15316933393478394,-0.12909314036369324,0.16654157638549805,-0.07461697608232498,-0.0769384428858757,0.10240764170885086,0.0873817577958107,0.17421352863311768,0.03318328037858009,-0.07541035860776901,-0.17013807594776154,-0.07625031471252441,0.08782677352428436,0.1962675154209137,0.04057273268699646],[0.1508725881576538,0.09847930818796158,-0.13459055125713348,0.0028090043924748898,0.18884174525737762,-0.06945370882749557,-0.14542992413043976,-0.0008119556587189436,0.047505129128694534,-0.1282561868429184,-0.08617939800024033,-0.17500416934490204,-0.020929373800754547,0.18676088750362396,-0.06963339447975159,-0.048803530633449554,-0.19435200095176697,-0.08756636828184128,-0.16203497350215912,0.17285364866256714,-0.07785969972610474,0.030404958873987198,0.017697636038064957,0.15167021751403809,0.16921579837799072,-0.008099200204014778,-0.14716984331607819,-0.12117031216621399,-0.10352033376693726,0.037910059094429016,0.14195768535137177,-0.0003185634850524366,0.18476559221744537],[-0.11636392027139664,-0.11778221279382706,-0.09562186151742935,0.19137775897979736,0.07697629928588867,0.17799872159957886,0.17486990988254547,0.10335042327642441,0.009300506673753262,0.15409615635871887,-0.12394679337739944,-0.09911710768938065,-0.09472765028476715,0.1899520456790924,-0.12209632247686386,-0.08711149543523788,0.05321740359067917,0.07407194375991821,0.01847093179821968,0.008581620641052723,0.04413893446326256,0.011412983760237694,-0.024906042963266373,-0.1384420543909073,-0.05752396211028099,-0.13917911052703857,-0.0682143121957779,0.06729073077440262,-0.013813851401209831,0.058994174003601074,-0.03447500616312027,-0.1921767294406891,0.07664655894041061],[-0.1853337436914444,0.10413229465484619,-0.07059027999639511,-0.17186562716960907,-0.08451241999864578,0.052512168884277344,-0.10408192127943039,0.1516961306333542,-0.1449449509382248,0.06161925196647644,0.014201118610799313,0.024014456197619438,-0.028766993433237076,0.11317101120948792,-0.11367695033550262,-0.0883103534579277,-0.0749080628156662,-0.08820947259664536,0.18244914710521698,-0.044704779982566833,-0.11645109206438065,0.0700746551156044,0.10020634531974792,-0.1360962688922882,0.12624846398830414,0.025396032258868217,-0.0876493901014328,0.13127970695495605,0.14634019136428833,-0.0929502323269844,0.10981995612382889,-0.14233629405498505,0.10653005540370941],[0.06630855798721313,0.010035557672381401,-0.07661021500825882,0.13566914200782776,-0.0993371531367302,-0.17254723608493805,-0.057300589978694916,-0.14988510310649872,-0.028320785611867905,-0.17542389035224915,-0.1650562584400177,-0.16052842140197754,-0.14165495336055756,-0.17187723517417908,-0.08335230499505997,-0.09500746428966522,0.005272080656141043,-0.0330481193959713,-0.03906509652733803,0.10938223451375961,0.04315878078341484,-0.14406231045722961,-0.03662024438381195,-0.0647517591714859,0.07994472980499268,-0.1824936419725418,0.03761296719312668,0.17422226071357727,0.056378405541181564,-0.14545615017414093,0.1279638409614563,-0.12406931817531586,0.03752715513110161],[-0.138164684176445,-0.05276046320796013,0.12051481008529663,0.024252325296401978,-0.0792720764875412,-0.08300993591547012,-0.123031847178936,0.14343169331550598,-0.1744704693555832,0.0854344591498375,-0.12519337236881256,0.15575364232063293,0.017733825370669365,-0.04331135377287865,-0.197648286819458,0.08360528200864792,0.048170287162065506,0.14668793976306915,0.09451422840356827,-0.14801548421382904,0.01152830570936203,0.07638340443372726,0.17889612913131714,-0.13346493244171143,-0.09698393195867538,0.11609719693660736,-0.014302731491625309,0.08978438377380371,0.16305814683437347,-0.08921131491661072,-0.03646732494235039,0.029116474092006683,-0.10432878881692886],[-0.14483626186847687,-0.1344163864850998,0.010789611376821995,-0.013370812870562077,-0.04048224538564682,0.09423264116048813,-0.09979936480522156,0.17680402100086212,-0.1017158254981041,0.015236820094287395,0.15219800174236298,-0.08061417937278748,0.12771527469158173,0.13929535448551178,-0.14282163977622986,0.19601888954639435,-0.15237881243228912,0.11909452080726624,-0.05368153750896454,0.046764422208070755,0.1288645714521408,-0.022604120895266533,-0.17960916459560394,-0.14908364415168762,-0.15634125471115112,-0.11591710895299911,-0.08160489052534103,0.02273854985833168,0.12274380028247833,-0.00872744433581829,0.11270053684711456,-0.12488868087530136,0.1593780517578125],[-0.019743507727980614,-0.12121541053056717,0.15903252363204956,0.13917899131774902,0.14259299635887146,0.009813237935304642,0.08216776698827744,0.10675511509180069,-0.16543430089950562,-0.13537664711475372,0.035921987146139145,-0.1353839635848999,-0.09415483474731445,0.11263731122016907,0.11210423707962036,-0.16973070800304413,0.14846162497997284,-0.19004617631435394,-0.11158795654773712,-0.06425207108259201,-0.03442506492137909,-0.0489061176776886,-0.14126643538475037,0.001871956163085997,0.1608363687992096,0.18430526554584503,-0.07906816899776459,-0.151664137840271,0.037965718656778336,0.00935435388237238,-0.08402193337678909,0.16429749131202698,0.010775191709399223],[0.10100868344306946,-0.14009630680084229,-0.04407547786831856,-0.0221750158816576,0.028710389509797096,0.06401368230581284,0.07535312324762344,-0.05735205486416817,-0.16551227867603302,-0.18868663907051086,0.15234670042991638,0.0414898619055748,-0.05324968695640564,-0.05893713980913162,-0.19831737875938416,-0.17308309674263,-0.14563916623592377,-0.0658561959862709,-0.18690526485443115,0.010851089842617512,0.041597988456487656,-0.10186538100242615,-0.1299995630979538,-0.08919871598482132,-0.016035456210374832,0.09929797798395157,-0.19270139932632446,0.17644979059696198,-0.09721843153238297,-0.0021154971327632666,0.1457134634256363,0.009188325144350529,0.024206440895795822],[0.17763777077198029,0.08797057718038559,-0.18770088255405426,0.13308990001678467,0.12244263291358948,0.10362953692674637,-0.11417507380247116,0.15865015983581543,-0.01733676716685295,0.07739439606666565,0.1719568818807602,0.1729225516319275,0.03388402983546257,0.16016820073127747,-0.053906623274087906,0.03938637301325798,-0.15232014656066895,-0.04362235590815544,-0.05279606953263283,-0.056391794234514236,0.08568800240755081,0.10488363355398178,0.06747622042894363,-0.0826994851231575,-0.07660824060440063,0.14894446730613708,-0.08849893510341644,0.1659821718931198,0.07017607986927032,0.13906362652778625,-0.17245467007160187,0.14460979402065277,-0.00008734672155696899]],"biases":[-0.16028393805027008,-0.10419289767742157,0.20111922919750214,-0.1151791512966156,0.12031162530183792,0.1385735273361206,0.19904427230358124,-0.1467473804950714,-0.09177003800868988,-0.11337104439735413,-0.010947552509605885,-0.08109606802463531,-0.030782045796513557,0.08082641661167145,0.09078030288219452,0.041100531816482544,-0.15245552361011505,-0.02109423466026783,0.12252200394868851,0.11351265013217926,0.03658647462725639,0.16834580898284912,0.09217344969511032,0.014151696115732193,-0.04141753539443016,0.16643507778644562,-0.01903785951435566,-0.014719711616635323,0.12741436064243317,-0.04917719215154648,0.14918619394302368,0.054025642573833466,-0.0024080094881355762,0.1598500907421112,0.15024766325950623,-0.13072718679904938,-0.0613984651863575,-0.12299947440624237,-0.01736985146999359,-0.06775309145450592,0.17276939749717712,-0.1961997002363205,0.13741186261177063,-0.1807786375284195,-0.036816153675317764,-0.09357887506484985,0.08425028622150421,0.07557109743356705,0.0007268813205882907,-0.16868872940540314,0.04368705302476883,-0.13758644461631775,-0.11452293395996094,0.1265358179807663,0.1994853913784027,-0.12858733534812927,0.052552200853824615,0.14607153832912445,0.07251953333616257,0.15409809350967407,0.1720016598701477,-0.10373483598232269,-0.08152762055397034,-0.16695581376552582,-0.028511958196759224,-0.06982085108757019,-0.001553756301291287,-0.15031670033931732,-0.057427894324064255,0.03581150248646736,0.0921950712800026,0.01039417739957571,-0.04874832183122635,0.05088255554437637,-0.19165371358394623,0.04062807559967041,0.04587600752711296,0.13970240950584412,-0.15412180125713348,0.19155648350715637,0.14231383800506592,0.09278721362352371,0.0531231127679348,0.11888434737920761,0.19575802981853485,0.18195559084415436,-0.05877508223056793,0.10563209652900696,0.12069258838891983,0.03395828977227211,-0.07450079917907715,-0.07492848485708237,0.1008278951048851,0.1218031793832779,0.020091455429792404,-0.15881739556789398,0.14933037757873535,0.12942048907279968,0.09404460340738297,0.07622227817773819,-0.11226174235343933,0.12549878656864166,0.20258763432502747,0.20030319690704346,0.04373729228973389,0.16313530504703522,-0.07301253825426102,-0.0825289860367775,0.0944427028298378,0.06006023660302162,-0.15862473845481873,-0.1684643179178238,-0.055090758949518204,0.061513129621744156,-0.0685419961810112,-0.05699160322546959,0.1811293065547943,-0.005251346156001091,0.10395946353673935,-0.04209230840206146,-0.09673969447612762,-0.18537376821041107,0.08686687797307968,0.11351484805345535,0.1270265281200409,-0.18244731426239014,0.1476631909608841,0.021971428766846657]},{"weights":[[-0.022590138018131256,0.06953631341457367,0.12041840702295303,0.05541136860847473,0.18303880095481873,0.10979947447776794,-0.1714017391204834,-0.11448361724615097,-0.020658161491155624,-0.006744908168911934,-0.14933499693870544,-0.07486394047737122,-0.16147081553936005,-0.15741613507270813,0.08706468343734741,0.0056013367138803005,-0.10298698395490646,0.08015311509370804,0.1518907994031906,-0.01581544056534767,0.09012100100517273,-0.012368871830403805,-0.01931612193584442,-0.16872252523899078,0.1337357610464096,0.03985711932182312,0.061103902757167816,0.062422726303339005,-0.13128463923931122,0.0876898467540741,0.1804528832435608,-0.0990229919552803,-0.04178707301616669,-0.02538805827498436,-0.017505183815956116,0.1173572912812233,0.09541039168834686,0.08548568934202194,-0.08501549810171127,-0.13177594542503357,0.13794083893299103,-0.09892262518405914,-0.137039914727211,-0.11077027022838593,0.11979573965072632,-0.08784559369087219,-0.15036310255527496,0.18974506855010986,0.002392318332567811,0.13333648443222046,0.16988550126552582,0.17318400740623474,0.05373752862215042,-0.02931053936481476,0.11487577855587006,-0.02219848334789276,-0.09155424684286118,-0.06822936236858368,0.08403979241847992,0.007776782847940922,-0.14023536443710327,0.09332091361284256,0.18227215111255646,0.05749988555908203,-0.19017654657363892,0.020466074347496033,0.15258821845054626,-0.048569969832897186,-0.011708960868418217,-0.1386583298444748,-0.10633242130279541,-0.17490459978580475,-0.03478405624628067,-0.08027498424053192,-0.16979749500751495,-0.17331112921237946,0.03557833656668663,0.2032015472650528,-0.1678806096315384,-0.06694752722978592,0.05882192403078079,0.18549524247646332,-0.12446693331003189,-0.00017670162196736783,-0.02224895916879177,-0.037353284657001495,-0.11698149889707565,-0.13027776777744293,-0.08831143379211426,-0.01233674120157957,-0.08683782815933228,0.11532735824584961,-0.04176756367087364,0.14948228001594543,0.018920989707112312,-0.0020283679477870464,-0.1565171182155609,-0.18885841965675354,-0.18367063999176025,0.011719373986124992,0.03679560869932175,0.12443216890096664,0.049281250685453415,-0.09526968002319336,0.0846298560500145,0.125970721244812,0.16189943253993988,-0.1881016194820404,0.14745479822158813,0.1686205118894577,0.15679168701171875,-0.016583258286118507,-0.07010187208652496,0.06136946752667427,0.004942464642226696,-0.1442224681377411,0.2028615027666092,0.14927124977111816,0.10160914063453674,-0.011989054270088673,0.02426869049668312,-0.18991000950336456,0.0727333053946495,0.026890039443969727,-0.030822372063994408,0.1258464902639389,-0.17963100969791412,-0.07079493254423141],[-0.03487629070878029,-0.14307624101638794,0.04174215719103813,0.09774775803089142,-0.07061679661273956,0.18522264063358307,0.060876160860061646,0.1778637319803238,-0.16826114058494568,0.04712994024157524,0.006744124460965395,-0.13758517801761627,-0.0360465869307518,-0.18242666125297546,0.005346362944692373,-0.05824723094701767,-0.17026041448116302,-0.16719523072242737,-0.1102556362748146,0.1330932378768921,0.021992534399032593,-0.08636650443077087,-0.06581571698188782,-0.07867822796106339,0.15503431856632233,0.08152100443840027,0.08080650120973587,0.18014907836914062,-0.027484754100441933,-0.1392149180173874,0.05310722813010216,0.05913957953453064,-0.010121962055563927,-0.13940560817718506,-0.04739386960864067,-0.03209446743130684,-0.06001773104071617,-0.06409776955842972,0.1513551026582718,-0.10891018807888031,0.056683026254177094,0.1633056253194809,-0.16545331478118896,0.08000209182500839,-0.1696026772260666,-0.14956599473953247,-0.18560704588890076,-0.12698985636234283,0.07230756431818008,-0.17874926328659058,-0.14574548602104187,-0.07460880279541016,0.06815863400697708,-0.06995377689599991,-0.0766705721616745,-0.02955436520278454,0.11914318799972534,-0.12000755965709686,-0.04736173897981644,0.009987018071115017,0.09556001424789429,-0.07926488667726517,0.0817459374666214,0.014211366884410381,0.09201980382204056,0.18124373257160187,0.06964579224586487,-0.19335788488388062,-0.04815954715013504,-0.051481496542692184,0.16338905692100525,0.07475461810827255,-0.10943999886512756,-0.10720128566026688,0.07098808884620667,0.06267157196998596,0.1006353572010994,-0.11888785660266876,0.1434561312198639,0.02066587656736374,0.17951355874538422,0.1683334857225418,-0.02546006813645363,-0.1897885501384735,0.020889751613140106,-0.07541609555482864,0.09602288901805878,-0.13329623639583588,-0.17053259909152985,-0.1591062992811203,0.08408752083778381,0.18023887276649475,0.004447225481271744,0.14204542338848114,0.07921775430440903,-0.12489155679941177,-0.14924827218055725,0.0023403996601700783,-0.13500258326530457,-0.01927710324525833,-0.01440120767802,-0.14308807253837585,0.08629748970270157,-0.1687103658914566,0.1561136692762375,-0.016482960432767868,0.17634053528308868,-0.1748424619436264,0.11953156441450119,0.11717496067285538,-0.13771480321884155,-0.049308355897665024,0.15721744298934937,-0.17304140329360962,0.18714866042137146,0.02954578585922718,0.2052059918642044,-0.16145849227905273,0.015540746971964836,-0.06928995251655579,0.1252489537000656,-0.07641453295946121,-0.010865695774555206,0.03942214325070381,-0.0892542377114296,-0.15853717923164368,-0.17652027308940887,-0.004227133467793465],[0.13462568819522858,-0.13799719512462616,0.18332956731319427,0.14514826238155365,0.0029185123275965452,-0.10425899177789688,-0.10493423044681549,-0.15443699061870575,0.07642730325460434,0.02125631272792816,-0.08495473861694336,-0.04923581704497337,-0.14997360110282898,-0.15228715538978577,0.07701606303453445,-0.1322769969701767,-0.12200900912284851,-0.008158651180565357,-0.10438252240419388,-0.03352389484643936,-0.01577680930495262,0.152573361992836,0.025851815938949585,-0.06677534431219101,0.11202576011419296,-0.08235803991556168,-0.015861941501498222,-0.10756678134202957,0.021804150193929672,-0.1535998284816742,0.13811703026294708,0.09841463714838028,-0.04842934384942055,-0.04280754178762436,-0.1682426482439041,0.05523020774126053,0.07404763996601105,-0.050857383757829666,0.003878336865454912,0.19070696830749512,-0.17578260600566864,0.06763903051614761,0.0842689648270607,0.18233852088451385,-0.030893346294760704,0.1244221031665802,0.050171706825494766,0.14865237474441528,-0.17045767605304718,-0.1760467290878296,-0.11914189904928207,-0.19212691485881805,-0.18733255565166473,0.08673948794603348,-0.016972949728369713,0.08235152810811996,-0.16009636223316193,0.03273363783955574,0.17919191718101501,0.028416356071829796,-0.09782539308071136,0.10506920516490936,-0.09643491357564926,-0.03507666662335396,-0.11013275384902954,0.16071805357933044,-0.1949511468410492,0.19288796186447144,0.04480668157339096,-0.18196825683116913,-0.015283728949725628,-0.036506909877061844,0.12674006819725037,0.025926699861884117,0.07516545802354813,-0.07861417531967163,0.07058840990066528,0.07696077972650528,-0.012690138071775436,-0.14602528512477875,-0.00767521420493722,0.10409785062074661,-0.0550403892993927,-0.08702059090137482,-0.1615133434534073,0.04243851825594902,0.09523335099220276,0.18301831185817719,-0.019375085830688477,-0.11756494641304016,-0.08330755680799484,0.01493662130087614,-0.035054877400398254,-0.14900155365467072,0.1225135549902916,-0.014738022349774837,0.1680372953414917,-0.051315467804670334,0.05024215206503868,0.028449077159166336,0.02908029407262802,0.006583014968782663,0.02917083539068699,-0.062273696064949036,-0.1801454871892929,-0.07516539841890335,0.05486902594566345,-0.1673881560564041,0.11395502090454102,-0.19424183666706085,-0.08732853829860687,0.06537999212741852,-0.03626471012830734,0.12604661285877228,-0.059958647936582565,-0.061046499758958817,-0.06267780065536499,-0.01097939070314169,0.1565428376197815,-0.18987727165222168,-0.09239968657493591,0.007201069500297308,-0.050150830298662186,0.15980489552021027,-0.17434245347976685,0.12491928786039352,-0.035902172327041626,-0.14314383268356323],[0.08370908349752426,0.11424101144075394,0.053149592131376266,0.1424856334924698,0.04687384516000748,0.19787602126598358,0.15596464276313782,0.07478439807891846,0.03458486869931221,0.04891660436987877,0.048723720014095306,0.04702245071530342,0.083076611161232,0.08117987215518951,0.09892053157091141,-0.09083709865808487,0.18036359548568726,0.007264566607773304,-0.08976653218269348,-0.0013331823283806443,0.18176694214344025,-0.17354677617549896,0.00026053879992105067,0.04396551474928856,-0.02228286676108837,0.03690626472234726,-0.16492286324501038,0.1880536675453186,-0.029430491849780083,0.16228190064430237,0.08153093606233597,-0.1313650757074356,0.08874089270830154,0.1925067901611328,-0.0877661481499672,0.1913307160139084,-0.1315753310918808,-0.15830478072166443,-0.04077770933508873,-0.15397004783153534,0.18407806754112244,0.06883072853088379,0.07686242461204529,0.02980358526110649,0.052078355103731155,-0.19857169687747955,-0.07765641808509827,0.13146428763866425,-0.19591347873210907,-0.06643737107515335,0.01299100462347269,-0.03064218908548355,-0.19514860212802887,-0.001504907850176096,0.06336303800344467,-0.19170835614204407,-0.0702589675784111,0.14697441458702087,0.016843369230628014,-0.01263682171702385,-0.030159441754221916,0.08047954738140106,-0.018510878086090088,-0.052864544093608856,0.1497221440076828,-0.013618605211377144,0.1754460334777832,0.0014410244766622782,0.15733028948307037,0.08398212492465973,-0.19174987077713013,-0.00521217891946435,-0.17594273388385773,-0.19180083274841309,0.0486527681350708,0.017899464815855026,0.04561341553926468,-0.16928040981292725,-0.1722528636455536,-0.1634148508310318,-0.08049628883600235,0.09446127712726593,0.15208831429481506,-0.02349388599395752,-0.18869592249393463,-0.02263392135500908,0.006051392760127783,0.16937582194805145,0.15634076297283173,-0.10881160199642181,-0.013776124455034733,0.12812760472297668,-0.006271396763622761,-0.1105600893497467,-0.13540804386138916,-0.19353552162647247,0.003872496308758855,0.1777474582195282,-0.025166653096675873,0.13040313124656677,0.12529821693897247,-0.1271626204252243,-0.08819668740034103,-0.1899283081293106,0.07687750458717346,0.1404140293598175,-0.08948060125112534,0.06445283442735672,-0.04672755300998688,-0.13264648616313934,0.1159617081284523,0.134232297539711,0.03617481142282486,-0.06155966967344284,-0.19074267148971558,-0.15913818776607513,0.1300404667854309,-0.10610780119895935,0.05341107025742531,-0.18763677775859833,0.15404850244522095,-0.05767158046364784,0.11675433814525604,